network unknown {
}
variable cole_area_ubicacion {
    type discrete [ 2 ] { RURAL, URBANO };
}
variable cole_bilingue {
    type discrete [ 2 ] { N, S };
}
variable cole_caracter {
    type discrete [ 4 ] { ACADEMICO, NO_APLICA, TECNICO, TECNICO_ACADEMICO };
}
variable cole_depto_ubicacion {
    type discrete [ 33 ] { AMAZONAS, ANTIOQUIA, ARAUCA, ATLANTICO, BOGOTA, BOLIVAR, BOYACA, CALDAS, CAQUETA, CASANARE, CAUCA, CESAR, CHOCO, CORDOBA, CUNDINAMARCA, GUAINIA, GUAVIARE, HUILA, LA_GUAJIRA, MAGDALENA, META, NARINO, NORTE_SANTANDER, PUTUMAYO, QUINDIO, RISARALDA, SANTANDER, SAN_ANDRES, SUCRE, TOLIMA, VALLE, VAUPES, VICHADA };
}
variable cole_genero {
    type discrete [ 3 ] { FEMENINO, MASCULINO, MIXTO };
}
variable cole_jornada {
    type discrete [ 6 ] { COMPLETA, MANANA, NOCHE, SABATINA, TARDE, UNICA };
}
variable cole_naturaleza {
    type discrete [ 2 ] { NO_OFICIAL, OFICIAL };
}
variable grupo {
    type discrete [ 8 ] { Grupo_1, Grupo_2, Grupo_3, Grupo_4, Grupo_5, Grupo_6, Grupo_7, Grupo_8 };
}
probability ( cole_area_ubicacion | cole_bilingue, cole_caracter, cole_depto_ubicacion, cole_genero ) {
    ( N, ACADEMICO, AMAZONAS, FEMENINO ) 0.5, 0.5;
    ( N, ACADEMICO, AMAZONAS, MASCULINO ) 0.5, 0.5;
    ( N, ACADEMICO, AMAZONAS, MIXTO ) 0.6485507246376812, 0.35144927536231885;
    ( N, ACADEMICO, ANTIOQUIA, FEMENINO ) 0.0, 1.0;
    ( N, ACADEMICO, ANTIOQUIA, MASCULINO ) 0.07119386637458927, 0.9288061336254108;
    ( N, ACADEMICO, ANTIOQUIA, MIXTO ) 0.18393110685844805, 0.816068893141552;
    ( N, ACADEMICO, ARAUCA, FEMENINO ) 0.5, 0.5;
    ( N, ACADEMICO, ARAUCA, MASCULINO ) 0.5, 0.5;
    ( N, ACADEMICO, ARAUCA, MIXTO ) 0.3362432269717038, 0.6637567730282962;
    ( N, ACADEMICO, ATLANTICO, FEMENINO ) 0.0, 1.0;
    ( N, ACADEMICO, ATLANTICO, MASCULINO ) 0.0, 1.0;
    ( N, ACADEMICO, ATLANTICO, MIXTO ) 0.02305732168922095, 0.9769426783107791;
    ( N, ACADEMICO, BOGOTA, FEMENINO ) 0.0, 1.0;
    ( N, ACADEMICO, BOGOTA, MASCULINO ) 0.07969995311767464, 0.9203000468823254;
    ( N, ACADEMICO, BOGOTA, MIXTO ) 0.007734664078671913, 0.992265335921328;
    ( N, ACADEMICO, BOLIVAR, FEMENINO ) 0.0, 1.0;
    ( N, ACADEMICO, BOLIVAR, MASCULINO ) 0.0, 1.0;
    ( N, ACADEMICO, BOLIVAR, MIXTO ) 0.236357180898278, 0.763642819101722;
    ( N, ACADEMICO, BOYACA, FEMENINO ) 0.5, 0.5;
    ( N, ACADEMICO, BOYACA, MASCULINO ) 0.0, 1.0;
    ( N, ACADEMICO, BOYACA, MIXTO ) 0.1528895391367959, 0.8471104608632041;
    ( N, ACADEMICO, CALDAS, FEMENINO ) 0.0, 1.0;
    ( N, ACADEMICO, CALDAS, MASCULINO ) 0.06569343065693431, 0.9343065693430657;
    ( N, ACADEMICO, CALDAS, MIXTO ) 0.19339822259839187, 0.8066017774016081;
    ( N, ACADEMICO, CAQUETA, FEMENINO ) 0.5, 0.5;
    ( N, ACADEMICO, CAQUETA, MASCULINO ) 0.5, 0.5;
    ( N, ACADEMICO, CAQUETA, MIXTO ) 0.09137489325362938, 0.9086251067463706;
    ( N, ACADEMICO, CASANARE, FEMENINO ) 0.5, 0.5;
    ( N, ACADEMICO, CASANARE, MASCULINO ) 0.5, 0.5;
    ( N, ACADEMICO, CASANARE, MIXTO ) 0.1786064769381747, 0.8213935230618253;
    ( N, ACADEMICO, CAUCA, FEMENINO ) 0.0, 1.0;
    ( N, ACADEMICO, CAUCA, MASCULINO ) 0.5, 0.5;
    ( N, ACADEMICO, CAUCA, MIXTO ) 0.22795202360336092, 0.7720479763966391;
    ( N, ACADEMICO, CESAR, FEMENINO ) 0.5, 0.5;
    ( N, ACADEMICO, CESAR, MASCULINO ) 0.5, 0.5;
    ( N, ACADEMICO, CESAR, MIXTO ) 0.14299242424242425, 0.8570075757575758;
    ( N, ACADEMICO, CHOCO, FEMENINO ) 0.5, 0.5;
    ( N, ACADEMICO, CHOCO, MASCULINO ) 0.5, 0.5;
    ( N, ACADEMICO, CHOCO, MIXTO ) 0.06583760058522312, 0.9341623994147769;
    ( N, ACADEMICO, CORDOBA, FEMENINO ) 0.0, 1.0;
    ( N, ACADEMICO, CORDOBA, MASCULINO ) 0.5, 0.5;
    ( N, ACADEMICO, CORDOBA, MIXTO ) 0.29055674379415386, 0.7094432562058461;
    ( N, ACADEMICO, CUNDINAMARCA, FEMENINO ) 0.2055393586005831, 0.7944606413994169;
    ( N, ACADEMICO, CUNDINAMARCA, MASCULINO ) 0.0, 1.0;
    ( N, ACADEMICO, CUNDINAMARCA, MIXTO ) 0.15433856304121585, 0.8456614369587842;
    ( N, ACADEMICO, GUAINIA, FEMENINO ) 0.5, 0.5;
    ( N, ACADEMICO, GUAINIA, MASCULINO ) 0.5, 0.5;
    ( N, ACADEMICO, GUAINIA, MIXTO ) 0.42962962962962964, 0.5703703703703704;
    ( N, ACADEMICO, GUAVIARE, FEMENINO ) 0.5, 0.5;
    ( N, ACADEMICO, GUAVIARE, MASCULINO ) 0.5, 0.5;
    ( N, ACADEMICO, GUAVIARE, MIXTO ) 0.37826453243470937, 0.6217354675652906;
    ( N, ACADEMICO, HUILA, FEMENINO ) 0.5, 0.5;
    ( N, ACADEMICO, HUILA, MASCULINO ) 0.0, 1.0;
    ( N, ACADEMICO, HUILA, MIXTO ) 0.2769607843137255, 0.7230392156862745;
    ( N, ACADEMICO, LA_GUAJIRA, FEMENINO ) 0.5, 0.5;
    ( N, ACADEMICO, LA_GUAJIRA, MASCULINO ) 0.5, 0.5;
    ( N, ACADEMICO, LA_GUAJIRA, MIXTO ) 0.1657251666137734, 0.8342748333862265;
    ( N, ACADEMICO, MAGDALENA, FEMENINO ) 0.0, 1.0;
    ( N, ACADEMICO, MAGDALENA, MASCULINO ) 0.0, 1.0;
    ( N, ACADEMICO, MAGDALENA, MIXTO ) 0.1348982105339419, 0.8651017894660581;
    ( N, ACADEMICO, META, FEMENINO ) 0.5, 0.5;
    ( N, ACADEMICO, META, MASCULINO ) 0.5, 0.5;
    ( N, ACADEMICO, META, MIXTO ) 0.09600465477114042, 0.9039953452288596;
    ( N, ACADEMICO, NARINO, FEMENINO ) 0.0, 1.0;
    ( N, ACADEMICO, NARINO, MASCULINO ) 0.5, 0.5;
    ( N, ACADEMICO, NARINO, MIXTO ) 0.22187176136619655, 0.7781282386338034;
    ( N, ACADEMICO, NORTE_SANTANDER, FEMENINO ) 0.0, 1.0;
    ( N, ACADEMICO, NORTE_SANTANDER, MASCULINO ) 0.23877551020408164, 0.7612244897959184;
    ( N, ACADEMICO, NORTE_SANTANDER, MIXTO ) 0.10052467492966315, 0.8994753250703369;
    ( N, ACADEMICO, PUTUMAYO, FEMENINO ) 0.5, 0.5;
    ( N, ACADEMICO, PUTUMAYO, MASCULINO ) 0.5, 0.5;
    ( N, ACADEMICO, PUTUMAYO, MIXTO ) 0.4673866090712743, 0.5326133909287257;
    ( N, ACADEMICO, QUINDIO, FEMENINO ) 0.0, 1.0;
    ( N, ACADEMICO, QUINDIO, MASCULINO ) 0.5, 0.5;
    ( N, ACADEMICO, QUINDIO, MIXTO ) 0.06200622456308355, 0.9379937754369164;
    ( N, ACADEMICO, RISARALDA, FEMENINO ) 0.0, 1.0;
    ( N, ACADEMICO, RISARALDA, MASCULINO ) 0.0, 1.0;
    ( N, ACADEMICO, RISARALDA, MIXTO ) 0.24696721311475409, 0.7530327868852459;
    ( N, ACADEMICO, SANTANDER, FEMENINO ) 0.0, 1.0;
    ( N, ACADEMICO, SANTANDER, MASCULINO ) 0.5769230769230769, 0.4230769230769231;
    ( N, ACADEMICO, SANTANDER, MIXTO ) 0.21300510547354257, 0.7869948945264574;
    ( N, ACADEMICO, SAN_ANDRES, FEMENINO ) 0.5, 0.5;
    ( N, ACADEMICO, SAN_ANDRES, MASCULINO ) 0.5, 0.5;
    ( N, ACADEMICO, SAN_ANDRES, MIXTO ) 0.36306400839454356, 0.6369359916054564;
    ( N, ACADEMICO, SUCRE, FEMENINO ) 0.5, 0.5;
    ( N, ACADEMICO, SUCRE, MASCULINO ) 0.5, 0.5;
    ( N, ACADEMICO, SUCRE, MIXTO ) 0.2109407811843763, 0.7890592188156237;
    ( N, ACADEMICO, TOLIMA, FEMENINO ) 0.0, 1.0;
    ( N, ACADEMICO, TOLIMA, MASCULINO ) 0.5, 0.5;
    ( N, ACADEMICO, TOLIMA, MIXTO ) 0.22023213338832262, 0.7797678666116774;
    ( N, ACADEMICO, VALLE, FEMENINO ) 0.0, 1.0;
    ( N, ACADEMICO, VALLE, MASCULINO ) 0.0, 1.0;
    ( N, ACADEMICO, VALLE, MIXTO ) 0.11827022691575043, 0.8817297730842496;
    ( N, ACADEMICO, VAUPES, FEMENINO ) 0.5, 0.5;
    ( N, ACADEMICO, VAUPES, MASCULINO ) 0.5, 0.5;
    ( N, ACADEMICO, VAUPES, MIXTO ) 0.6686046511627907, 0.3313953488372093;
    ( N, ACADEMICO, VICHADA, FEMENINO ) 0.5, 0.5;
    ( N, ACADEMICO, VICHADA, MASCULINO ) 0.5, 0.5;
    ( N, ACADEMICO, VICHADA, MIXTO ) 0.13942307692307693, 0.8605769230769231;
    ( N, NO_APLICA, AMAZONAS, FEMENINO ) 0.5, 0.5;
    ( N, NO_APLICA, AMAZONAS, MASCULINO ) 0.5, 0.5;
    ( N, NO_APLICA, AMAZONAS, MIXTO ) 0.5, 0.5;
    ( N, NO_APLICA, ANTIOQUIA, FEMENINO ) 0.5, 0.5;
    ( N, NO_APLICA, ANTIOQUIA, MASCULINO ) 0.5, 0.5;
    ( N, NO_APLICA, ANTIOQUIA, MIXTO ) 1.0, 0.0;
    ( N, NO_APLICA, ARAUCA, FEMENINO ) 0.5, 0.5;
    ( N, NO_APLICA, ARAUCA, MASCULINO ) 0.5, 0.5;
    ( N, NO_APLICA, ARAUCA, MIXTO ) 0.5, 0.5;
    ( N, NO_APLICA, ATLANTICO, FEMENINO ) 0.5, 0.5;
    ( N, NO_APLICA, ATLANTICO, MASCULINO ) 0.5, 0.5;
    ( N, NO_APLICA, ATLANTICO, MIXTO ) 0.0, 1.0;
    ( N, NO_APLICA, BOGOTA, FEMENINO ) 0.5, 0.5;
    ( N, NO_APLICA, BOGOTA, MASCULINO ) 0.5, 0.5;
    ( N, NO_APLICA, BOGOTA, MIXTO ) 0.0, 1.0;
    ( N, NO_APLICA, BOLIVAR, FEMENINO ) 0.5, 0.5;
    ( N, NO_APLICA, BOLIVAR, MASCULINO ) 0.5, 0.5;
    ( N, NO_APLICA, BOLIVAR, MIXTO ) 0.0, 1.0;
    ( N, NO_APLICA, BOYACA, FEMENINO ) 0.5, 0.5;
    ( N, NO_APLICA, BOYACA, MASCULINO ) 0.5, 0.5;
    ( N, NO_APLICA, BOYACA, MIXTO ) 0.0, 1.0;
    ( N, NO_APLICA, CALDAS, FEMENINO ) 0.5, 0.5;
    ( N, NO_APLICA, CALDAS, MASCULINO ) 0.5, 0.5;
    ( N, NO_APLICA, CALDAS, MIXTO ) 0.5, 0.5;
    ( N, NO_APLICA, CAQUETA, FEMENINO ) 0.5, 0.5;
    ( N, NO_APLICA, CAQUETA, MASCULINO ) 0.5, 0.5;
    ( N, NO_APLICA, CAQUETA, MIXTO ) 0.5, 0.5;
    ( N, NO_APLICA, CASANARE, FEMENINO ) 0.5, 0.5;
    ( N, NO_APLICA, CASANARE, MASCULINO ) 0.5, 0.5;
    ( N, NO_APLICA, CASANARE, MIXTO ) 0.5, 0.5;
    ( N, NO_APLICA, CAUCA, FEMENINO ) 0.5, 0.5;
    ( N, NO_APLICA, CAUCA, MASCULINO ) 0.5, 0.5;
    ( N, NO_APLICA, CAUCA, MIXTO ) 0.0, 1.0;
    ( N, NO_APLICA, CESAR, FEMENINO ) 0.5, 0.5;
    ( N, NO_APLICA, CESAR, MASCULINO ) 0.5, 0.5;
    ( N, NO_APLICA, CESAR, MIXTO ) 0.5, 0.5;
    ( N, NO_APLICA, CHOCO, FEMENINO ) 0.5, 0.5;
    ( N, NO_APLICA, CHOCO, MASCULINO ) 0.5, 0.5;
    ( N, NO_APLICA, CHOCO, MIXTO ) 0.5, 0.5;
    ( N, NO_APLICA, CORDOBA, FEMENINO ) 0.5, 0.5;
    ( N, NO_APLICA, CORDOBA, MASCULINO ) 0.5, 0.5;
    ( N, NO_APLICA, CORDOBA, MIXTO ) 0.0, 1.0;
    ( N, NO_APLICA, CUNDINAMARCA, FEMENINO ) 0.5, 0.5;
    ( N, NO_APLICA, CUNDINAMARCA, MASCULINO ) 0.5, 0.5;
    ( N, NO_APLICA, CUNDINAMARCA, MIXTO ) 0.008086253369272238, 0.9919137466307277;
    ( N, NO_APLICA, GUAINIA, FEMENINO ) 0.5, 0.5;
    ( N, NO_APLICA, GUAINIA, MASCULINO ) 0.5, 0.5;
    ( N, NO_APLICA, GUAINIA, MIXTO ) 0.5, 0.5;
    ( N, NO_APLICA, GUAVIARE, FEMENINO ) 0.5, 0.5;
    ( N, NO_APLICA, GUAVIARE, MASCULINO ) 0.5, 0.5;
    ( N, NO_APLICA, GUAVIARE, MIXTO ) 0.5, 0.5;
    ( N, NO_APLICA, HUILA, FEMENINO ) 0.5, 0.5;
    ( N, NO_APLICA, HUILA, MASCULINO ) 0.5, 0.5;
    ( N, NO_APLICA, HUILA, MIXTO ) 1.0, 0.0;
    ( N, NO_APLICA, LA_GUAJIRA, FEMENINO ) 0.5, 0.5;
    ( N, NO_APLICA, LA_GUAJIRA, MASCULINO ) 0.5, 0.5;
    ( N, NO_APLICA, LA_GUAJIRA, MIXTO ) 0.0, 1.0;
    ( N, NO_APLICA, MAGDALENA, FEMENINO ) 0.5, 0.5;
    ( N, NO_APLICA, MAGDALENA, MASCULINO ) 0.5, 0.5;
    ( N, NO_APLICA, MAGDALENA, MIXTO ) 0.0, 1.0;
    ( N, NO_APLICA, META, FEMENINO ) 0.5, 0.5;
    ( N, NO_APLICA, META, MASCULINO ) 0.5, 0.5;
    ( N, NO_APLICA, META, MIXTO ) 0.689873417721519, 0.310126582278481;
    ( N, NO_APLICA, NARINO, FEMENINO ) 0.5, 0.5;
    ( N, NO_APLICA, NARINO, MASCULINO ) 0.5, 0.5;
    ( N, NO_APLICA, NARINO, MIXTO ) 1.0, 0.0;
    ( N, NO_APLICA, NORTE_SANTANDER, FEMENINO ) 0.5, 0.5;
    ( N, NO_APLICA, NORTE_SANTANDER, MASCULINO ) 0.5, 0.5;
    ( N, NO_APLICA, NORTE_SANTANDER, MIXTO ) 1.0, 0.0;
    ( N, NO_APLICA, PUTUMAYO, FEMENINO ) 0.5, 0.5;
    ( N, NO_APLICA, PUTUMAYO, MASCULINO ) 0.5, 0.5;
    ( N, NO_APLICA, PUTUMAYO, MIXTO ) 0.5, 0.5;
    ( N, NO_APLICA, QUINDIO, FEMENINO ) 0.5, 0.5;
    ( N, NO_APLICA, QUINDIO, MASCULINO ) 0.5, 0.5;
    ( N, NO_APLICA, QUINDIO, MIXTO ) 0.5, 0.5;
    ( N, NO_APLICA, RISARALDA, FEMENINO ) 0.5, 0.5;
    ( N, NO_APLICA, RISARALDA, MASCULINO ) 0.5, 0.5;
    ( N, NO_APLICA, RISARALDA, MIXTO ) 0.5, 0.5;
    ( N, NO_APLICA, SANTANDER, FEMENINO ) 0.5, 0.5;
    ( N, NO_APLICA, SANTANDER, MASCULINO ) 0.5, 0.5;
    ( N, NO_APLICA, SANTANDER, MIXTO ) 0.5, 0.5;
    ( N, NO_APLICA, SAN_ANDRES, FEMENINO ) 0.5, 0.5;
    ( N, NO_APLICA, SAN_ANDRES, MASCULINO ) 0.5, 0.5;
    ( N, NO_APLICA, SAN_ANDRES, MIXTO ) 0.5, 0.5;
    ( N, NO_APLICA, SUCRE, FEMENINO ) 0.5, 0.5;
    ( N, NO_APLICA, SUCRE, MASCULINO ) 0.5, 0.5;
    ( N, NO_APLICA, SUCRE, MIXTO ) 0.5, 0.5;
    ( N, NO_APLICA, TOLIMA, FEMENINO ) 0.5, 0.5;
    ( N, NO_APLICA, TOLIMA, MASCULINO ) 0.5, 0.5;
    ( N, NO_APLICA, TOLIMA, MIXTO ) 0.0, 1.0;
    ( N, NO_APLICA, VALLE, FEMENINO ) 0.5, 0.5;
    ( N, NO_APLICA, VALLE, MASCULINO ) 0.5, 0.5;
    ( N, NO_APLICA, VALLE, MIXTO ) 0.15673981191222572, 0.8432601880877743;
    ( N, NO_APLICA, VAUPES, FEMENINO ) 0.5, 0.5;
    ( N, NO_APLICA, VAUPES, MASCULINO ) 0.5, 0.5;
    ( N, NO_APLICA, VAUPES, MIXTO ) 0.5, 0.5;
    ( N, NO_APLICA, VICHADA, FEMENINO ) 0.5, 0.5;
    ( N, NO_APLICA, VICHADA, MASCULINO ) 0.5, 0.5;
    ( N, NO_APLICA, VICHADA, MIXTO ) 0.5, 0.5;
    ( N, TECNICO, AMAZONAS, FEMENINO ) 0.5, 0.5;
    ( N, TECNICO, AMAZONAS, MASCULINO ) 0.5, 0.5;
    ( N, TECNICO, AMAZONAS, MIXTO ) 0.6920289855072463, 0.3079710144927536;
    ( N, TECNICO, ANTIOQUIA, FEMENINO ) 0.5, 0.5;
    ( N, TECNICO, ANTIOQUIA, MASCULINO ) 0.5, 0.5;
    ( N, TECNICO, ANTIOQUIA, MIXTO ) 0.12720773759461732, 0.8727922624053827;
    ( N, TECNICO, ARAUCA, FEMENINO ) 0.5, 0.5;
    ( N, TECNICO, ARAUCA, MASCULINO ) 0.5, 0.5;
    ( N, TECNICO, ARAUCA, MIXTO ) 0.23748169838945826, 0.7625183016105417;
    ( N, TECNICO, ATLANTICO, FEMENINO ) 0.0, 1.0;
    ( N, TECNICO, ATLANTICO, MASCULINO ) 0.5, 0.5;
    ( N, TECNICO, ATLANTICO, MIXTO ) 0.08394656402128382, 0.9160534359787161;
    ( N, TECNICO, BOGOTA, FEMENINO ) 0.0, 1.0;
    ( N, TECNICO, BOGOTA, MASCULINO ) 0.0, 1.0;
    ( N, TECNICO, BOGOTA, MIXTO ) 0.05185185185185185, 0.9481481481481482;
    ( N, TECNICO, BOLIVAR, FEMENINO ) 0.5, 0.5;
    ( N, TECNICO, BOLIVAR, MASCULINO ) 0.0, 1.0;
    ( N, TECNICO, BOLIVAR, MIXTO ) 0.2592276674937965, 0.7407723325062034;
    ( N, TECNICO, BOYACA, FEMENINO ) 0.5, 0.5;
    ( N, TECNICO, BOYACA, MASCULINO ) 0.5, 0.5;
    ( N, TECNICO, BOYACA, MIXTO ) 0.21447944919674525, 0.7855205508032548;
    ( N, TECNICO, CALDAS, FEMENINO ) 0.5, 0.5;
    ( N, TECNICO, CALDAS, MASCULINO ) 0.0, 1.0;
    ( N, TECNICO, CALDAS, MIXTO ) 0.5047873524827433, 0.49521264751725674;
    ( N, TECNICO, CAQUETA, FEMENINO ) 0.5, 0.5;
    ( N, TECNICO, CAQUETA, MASCULINO ) 0.5, 0.5;
    ( N, TECNICO, CAQUETA, MIXTO ) 0.19821283509341997, 0.80178716490658;
    ( N, TECNICO, CASANARE, FEMENINO ) 0.5, 0.5;
    ( N, TECNICO, CASANARE, MASCULINO ) 0.5, 0.5;
    ( N, TECNICO, CASANARE, MIXTO ) 0.12394212394212394, 0.8760578760578761;
    ( N, TECNICO, CAUCA, FEMENINO ) 0.0, 1.0;
    ( N, TECNICO, CAUCA, MASCULINO ) 0.0, 1.0;
    ( N, TECNICO, CAUCA, MIXTO ) 0.48136262651197237, 0.5186373734880276;
    ( N, TECNICO, CESAR, FEMENINO ) 0.5, 0.5;
    ( N, TECNICO, CESAR, MASCULINO ) 0.5, 0.5;
    ( N, TECNICO, CESAR, MIXTO ) 0.1428266438941076, 0.8571733561058924;
    ( N, TECNICO, CHOCO, FEMENINO ) 0.5, 0.5;
    ( N, TECNICO, CHOCO, MASCULINO ) 0.5, 0.5;
    ( N, TECNICO, CHOCO, MIXTO ) 0.26223776223776224, 0.7377622377622378;
    ( N, TECNICO, CORDOBA, FEMENINO ) 0.5, 0.5;
    ( N, TECNICO, CORDOBA, MASCULINO ) 0.5, 0.5;
    ( N, TECNICO, CORDOBA, MIXTO ) 0.23015873015873015, 0.7698412698412699;
    ( N, TECNICO, CUNDINAMARCA, FEMENINO ) 0.5, 0.5;
    ( N, TECNICO, CUNDINAMARCA, MASCULINO ) 0.5, 0.5;
    ( N, TECNICO, CUNDINAMARCA, MIXTO ) 0.26102155758399687, 0.7389784424160031;
    ( N, TECNICO, GUAINIA, FEMENINO ) 0.5, 0.5;
    ( N, TECNICO, GUAINIA, MASCULINO ) 0.5, 0.5;
    ( N, TECNICO, GUAINIA, MIXTO ) 0.5, 0.5;
    ( N, TECNICO, GUAVIARE, FEMENINO ) 0.5, 0.5;
    ( N, TECNICO, GUAVIARE, MASCULINO ) 0.5, 0.5;
    ( N, TECNICO, GUAVIARE, MIXTO ) 0.0, 1.0;
    ( N, TECNICO, HUILA, FEMENINO ) 0.0, 1.0;
    ( N, TECNICO, HUILA, MASCULINO ) 0.5, 0.5;
    ( N, TECNICO, HUILA, MIXTO ) 0.27351118296954996, 0.72648881703045;
    ( N, TECNICO, LA_GUAJIRA, FEMENINO ) 0.0, 1.0;
    ( N, TECNICO, LA_GUAJIRA, MASCULINO ) 0.5, 0.5;
    ( N, TECNICO, LA_GUAJIRA, MIXTO ) 0.398904802021904, 0.6010951979780961;
    ( N, TECNICO, MAGDALENA, FEMENINO ) 0.0, 1.0;
    ( N, TECNICO, MAGDALENA, MASCULINO ) 0.5, 0.5;
    ( N, TECNICO, MAGDALENA, MIXTO ) 0.3120879120879121, 0.6879120879120879;
    ( N, TECNICO, META, FEMENINO ) 0.5, 0.5;
    ( N, TECNICO, META, MASCULINO ) 0.5, 0.5;
    ( N, TECNICO, META, MIXTO ) 0.4467496542185339, 0.5532503457814661;
    ( N, TECNICO, NARINO, FEMENINO ) 0.5, 0.5;
    ( N, TECNICO, NARINO, MASCULINO ) 0.5, 0.5;
    ( N, TECNICO, NARINO, MIXTO ) 0.5305082045563168, 0.4694917954436833;
    ( N, TECNICO, NORTE_SANTANDER, FEMENINO ) 0.0, 1.0;
    ( N, TECNICO, NORTE_SANTANDER, MASCULINO ) 0.0, 1.0;
    ( N, TECNICO, NORTE_SANTANDER, MIXTO ) 0.28884672148429263, 0.7111532785157073;
    ( N, TECNICO, PUTUMAYO, FEMENINO ) 0.5, 0.5;
    ( N, TECNICO, PUTUMAYO, MASCULINO ) 0.5, 0.5;
    ( N, TECNICO, PUTUMAYO, MIXTO ) 0.15582034830430797, 0.844179651695692;
    ( N, TECNICO, QUINDIO, FEMENINO ) 0.5, 0.5;
    ( N, TECNICO, QUINDIO, MASCULINO ) 0.5, 0.5;
    ( N, TECNICO, QUINDIO, MIXTO ) 1.0, 0.0;
    ( N, TECNICO, RISARALDA, FEMENINO ) 0.10921501706484642, 0.8907849829351536;
    ( N, TECNICO, RISARALDA, MASCULINO ) 0.5, 0.5;
    ( N, TECNICO, RISARALDA, MIXTO ) 0.15720185854414043, 0.8427981414558596;
    ( N, TECNICO, SANTANDER, FEMENINO ) 0.5, 0.5;
    ( N, TECNICO, SANTANDER, MASCULINO ) 0.5, 0.5;
    ( N, TECNICO, SANTANDER, MIXTO ) 0.13605962163195107, 0.8639403783680489;
    ( N, TECNICO, SAN_ANDRES, FEMENINO ) 0.5, 0.5;
    ( N, TECNICO, SAN_ANDRES, MASCULINO ) 0.5, 0.5;
    ( N, TECNICO, SAN_ANDRES, MIXTO ) 0.5, 0.5;
    ( N, TECNICO, SUCRE, FEMENINO ) 0.5, 0.5;
    ( N, TECNICO, SUCRE, MASCULINO ) 0.5, 0.5;
    ( N, TECNICO, SUCRE, MIXTO ) 0.5608228980322003, 0.43917710196779963;
    ( N, TECNICO, TOLIMA, FEMENINO ) 0.5, 0.5;
    ( N, TECNICO, TOLIMA, MASCULINO ) 0.5, 0.5;
    ( N, TECNICO, TOLIMA, MIXTO ) 0.18578370437337552, 0.8142162956266245;
    ( N, TECNICO, VALLE, FEMENINO ) 0.15367483296213807, 0.8463251670378619;
    ( N, TECNICO, VALLE, MASCULINO ) 0.0, 1.0;
    ( N, TECNICO, VALLE, MIXTO ) 0.1848219777215882, 0.8151780222784119;
    ( N, TECNICO, VAUPES, FEMENINO ) 0.5, 0.5;
    ( N, TECNICO, VAUPES, MASCULINO ) 0.5, 0.5;
    ( N, TECNICO, VAUPES, MIXTO ) 0.4405594405594406, 0.5594405594405595;
    ( N, TECNICO, VICHADA, FEMENINO ) 0.5, 0.5;
    ( N, TECNICO, VICHADA, MASCULINO ) 0.5, 0.5;
    ( N, TECNICO, VICHADA, MIXTO ) 0.2523364485981308, 0.7476635514018691;
    ( N, TECNICO_ACADEMICO, AMAZONAS, FEMENINO ) 0.5, 0.5;
    ( N, TECNICO_ACADEMICO, AMAZONAS, MASCULINO ) 0.5, 0.5;
    ( N, TECNICO_ACADEMICO, AMAZONAS, MIXTO ) 0.0, 1.0;
    ( N, TECNICO_ACADEMICO, ANTIOQUIA, FEMENINO ) 0.0, 1.0;
    ( N, TECNICO_ACADEMICO, ANTIOQUIA, MASCULINO ) 0.5, 0.5;
    ( N, TECNICO_ACADEMICO, ANTIOQUIA, MIXTO ) 0.09312346639535579, 0.9068765336046442;
    ( N, TECNICO_ACADEMICO, ARAUCA, FEMENINO ) 0.0, 1.0;
    ( N, TECNICO_ACADEMICO, ARAUCA, MASCULINO ) 0.5, 0.5;
    ( N, TECNICO_ACADEMICO, ARAUCA, MIXTO ) 0.0, 1.0;
    ( N, TECNICO_ACADEMICO, ATLANTICO, FEMENINO ) 0.0, 1.0;
    ( N, TECNICO_ACADEMICO, ATLANTICO, MASCULINO ) 0.5, 0.5;
    ( N, TECNICO_ACADEMICO, ATLANTICO, MIXTO ) 0.012186009082025637, 0.9878139909179744;
    ( N, TECNICO_ACADEMICO, BOGOTA, FEMENINO ) 0.0, 1.0;
    ( N, TECNICO_ACADEMICO, BOGOTA, MASCULINO ) 0.0, 1.0;
    ( N, TECNICO_ACADEMICO, BOGOTA, MIXTO ) 0.00936195335891705, 0.9906380466410829;
    ( N, TECNICO_ACADEMICO, BOLIVAR, FEMENINO ) 0.0, 1.0;
    ( N, TECNICO_ACADEMICO, BOLIVAR, MASCULINO ) 0.5, 0.5;
    ( N, TECNICO_ACADEMICO, BOLIVAR, MIXTO ) 0.1178168766824016, 0.8821831233175984;
    ( N, TECNICO_ACADEMICO, BOYACA, FEMENINO ) 0.0, 1.0;
    ( N, TECNICO_ACADEMICO, BOYACA, MASCULINO ) 0.5, 0.5;
    ( N, TECNICO_ACADEMICO, BOYACA, MIXTO ) 0.08135641182851483, 0.9186435881714852;
    ( N, TECNICO_ACADEMICO, CALDAS, FEMENINO ) 0.0, 1.0;
    ( N, TECNICO_ACADEMICO, CALDAS, MASCULINO ) 0.5, 0.5;
    ( N, TECNICO_ACADEMICO, CALDAS, MIXTO ) 0.0, 1.0;
    ( N, TECNICO_ACADEMICO, CAQUETA, FEMENINO ) 0.0, 1.0;
    ( N, TECNICO_ACADEMICO, CAQUETA, MASCULINO ) 0.5, 0.5;
    ( N, TECNICO_ACADEMICO, CAQUETA, MIXTO ) 0.10458267490303118, 0.8954173250969688;
    ( N, TECNICO_ACADEMICO, CASANARE, FEMENINO ) 0.5, 0.5;
    ( N, TECNICO_ACADEMICO, CASANARE, MASCULINO ) 0.5, 0.5;
    ( N, TECNICO_ACADEMICO, CASANARE, MIXTO ) 0.12506603275224512, 0.8749339672477549;
    ( N, TECNICO_ACADEMICO, CAUCA, FEMENINO ) 0.5, 0.5;
    ( N, TECNICO_ACADEMICO, CAUCA, MASCULINO ) 0.0, 1.0;
    ( N, TECNICO_ACADEMICO, CAUCA, MIXTO ) 0.1503023322775698, 0.8496976677224302;
    ( N, TECNICO_ACADEMICO, CESAR, FEMENINO ) 0.5, 0.5;
    ( N, TECNICO_ACADEMICO, CESAR, MASCULINO ) 0.5, 0.5;
    ( N, TECNICO_ACADEMICO, CESAR, MIXTO ) 0.17474402730375427, 0.8252559726962457;
    ( N, TECNICO_ACADEMICO, CHOCO, FEMENINO ) 0.0, 1.0;
    ( N, TECNICO_ACADEMICO, CHOCO, MASCULINO ) 0.5, 0.5;
    ( N, TECNICO_ACADEMICO, CHOCO, MIXTO ) 0.19401302605210421, 0.8059869739478958;
    ( N, TECNICO_ACADEMICO, CORDOBA, FEMENINO ) 0.5, 0.5;
    ( N, TECNICO_ACADEMICO, CORDOBA, MASCULINO ) 0.5, 0.5;
    ( N, TECNICO_ACADEMICO, CORDOBA, MIXTO ) 0.2276843467011643, 0.7723156532988357;
    ( N, TECNICO_ACADEMICO, CUNDINAMARCA, FEMENINO ) 0.0, 1.0;
    ( N, TECNICO_ACADEMICO, CUNDINAMARCA, MASCULINO ) 0.5, 0.5;
    ( N, TECNICO_ACADEMICO, CUNDINAMARCA, MIXTO ) 0.21569835499969195, 0.7843016450003081;
    ( N, TECNICO_ACADEMICO, GUAINIA, FEMENINO ) 0.5, 0.5;
    ( N, TECNICO_ACADEMICO, GUAINIA, MASCULINO ) 0.5, 0.5;
    ( N, TECNICO_ACADEMICO, GUAINIA, MIXTO ) 0.34006211180124224, 0.6599378881987578;
    ( N, TECNICO_ACADEMICO, GUAVIARE, FEMENINO ) 0.5, 0.5;
    ( N, TECNICO_ACADEMICO, GUAVIARE, MASCULINO ) 0.5, 0.5;
    ( N, TECNICO_ACADEMICO, GUAVIARE, MIXTO ) 0.06798029556650247, 0.9320197044334976;
    ( N, TECNICO_ACADEMICO, HUILA, FEMENINO ) 0.5, 0.5;
    ( N, TECNICO_ACADEMICO, HUILA, MASCULINO ) 0.5, 0.5;
    ( N, TECNICO_ACADEMICO, HUILA, MIXTO ) 0.09304539234933666, 0.9069546076506634;
    ( N, TECNICO_ACADEMICO, LA_GUAJIRA, FEMENINO ) 0.5, 0.5;
    ( N, TECNICO_ACADEMICO, LA_GUAJIRA, MASCULINO ) 0.5, 0.5;
    ( N, TECNICO_ACADEMICO, LA_GUAJIRA, MIXTO ) 0.0, 1.0;
    ( N, TECNICO_ACADEMICO, MAGDALENA, FEMENINO ) 0.0, 1.0;
    ( N, TECNICO_ACADEMICO, MAGDALENA, MASCULINO ) 0.5, 0.5;
    ( N, TECNICO_ACADEMICO, MAGDALENA, MIXTO ) 0.26525540727105384, 0.7347445927289462;
    ( N, TECNICO_ACADEMICO, META, FEMENINO ) 0.5, 0.5;
    ( N, TECNICO_ACADEMICO, META, MASCULINO ) 0.5, 0.5;
    ( N, TECNICO_ACADEMICO, META, MIXTO ) 0.12395411023893729, 0.8760458897610627;
    ( N, TECNICO_ACADEMICO, NARINO, FEMENINO ) 0.0, 1.0;
    ( N, TECNICO_ACADEMICO, NARINO, MASCULINO ) 0.5, 0.5;
    ( N, TECNICO_ACADEMICO, NARINO, MIXTO ) 0.21968897333051862, 0.7803110266694814;
    ( N, TECNICO_ACADEMICO, NORTE_SANTANDER, FEMENINO ) 0.33607520564042304, 0.663924794359577;
    ( N, TECNICO_ACADEMICO, NORTE_SANTANDER, MASCULINO ) 0.0, 1.0;
    ( N, TECNICO_ACADEMICO, NORTE_SANTANDER, MIXTO ) 0.057477429158845086, 0.9425225708411549;
    ( N, TECNICO_ACADEMICO, PUTUMAYO, FEMENINO ) 0.0, 1.0;
    ( N, TECNICO_ACADEMICO, PUTUMAYO, MASCULINO ) 0.5, 0.5;
    ( N, TECNICO_ACADEMICO, PUTUMAYO, MIXTO ) 0.18440111420612815, 0.8155988857938719;
    ( N, TECNICO_ACADEMICO, QUINDIO, FEMENINO ) 0.5, 0.5;
    ( N, TECNICO_ACADEMICO, QUINDIO, MASCULINO ) 0.5, 0.5;
    ( N, TECNICO_ACADEMICO, QUINDIO, MIXTO ) 0.0833729216152019, 0.9166270783847981;
    ( N, TECNICO_ACADEMICO, RISARALDA, FEMENINO ) 0.0, 1.0;
    ( N, TECNICO_ACADEMICO, RISARALDA, MASCULINO ) 0.5, 0.5;
    ( N, TECNICO_ACADEMICO, RISARALDA, MIXTO ) 0.16583902338092282, 0.8341609766190772;
    ( N, TECNICO_ACADEMICO, SANTANDER, FEMENINO ) 0.0, 1.0;
    ( N, TECNICO_ACADEMICO, SANTANDER, MASCULINO ) 0.5, 0.5;
    ( N, TECNICO_ACADEMICO, SANTANDER, MIXTO ) 0.06229603884216391, 0.937703961157836;
    ( N, TECNICO_ACADEMICO, SAN_ANDRES, FEMENINO ) 0.5, 0.5;
    ( N, TECNICO_ACADEMICO, SAN_ANDRES, MASCULINO ) 0.5, 0.5;
    ( N, TECNICO_ACADEMICO, SAN_ANDRES, MIXTO ) 0.49691358024691357, 0.5030864197530864;
    ( N, TECNICO_ACADEMICO, SUCRE, FEMENINO ) 0.5, 0.5;
    ( N, TECNICO_ACADEMICO, SUCRE, MASCULINO ) 0.5, 0.5;
    ( N, TECNICO_ACADEMICO, SUCRE, MIXTO ) 0.03471686468137633, 0.9652831353186236;
    ( N, TECNICO_ACADEMICO, TOLIMA, FEMENINO ) 0.0, 1.0;
    ( N, TECNICO_ACADEMICO, TOLIMA, MASCULINO ) 0.5, 0.5;
    ( N, TECNICO_ACADEMICO, TOLIMA, MIXTO ) 0.10249624060150377, 0.8975037593984962;
    ( N, TECNICO_ACADEMICO, VALLE, FEMENINO ) 0.0, 1.0;
    ( N, TECNICO_ACADEMICO, VALLE, MASCULINO ) 0.5, 0.5;
    ( N, TECNICO_ACADEMICO, VALLE, MIXTO ) 0.07229908050227773, 0.9277009194977223;
    ( N, TECNICO_ACADEMICO, VAUPES, FEMENINO ) 0.5, 0.5;
    ( N, TECNICO_ACADEMICO, VAUPES, MASCULINO ) 0.5, 0.5;
    ( N, TECNICO_ACADEMICO, VAUPES, MIXTO ) 0.0, 1.0;
    ( N, TECNICO_ACADEMICO, VICHADA, FEMENINO ) 0.5, 0.5;
    ( N, TECNICO_ACADEMICO, VICHADA, MASCULINO ) 0.5, 0.5;
    ( N, TECNICO_ACADEMICO, VICHADA, MIXTO ) 0.0, 1.0;
    ( S, ACADEMICO, AMAZONAS, FEMENINO ) 0.5, 0.5;
    ( S, ACADEMICO, AMAZONAS, MASCULINO ) 0.5, 0.5;
    ( S, ACADEMICO, AMAZONAS, MIXTO ) 1.0, 0.0;
    ( S, ACADEMICO, ANTIOQUIA, FEMENINO ) 0.5, 0.5;
    ( S, ACADEMICO, ANTIOQUIA, MASCULINO ) 0.0, 1.0;
    ( S, ACADEMICO, ANTIOQUIA, MIXTO ) 0.5349143610013175, 0.4650856389986825;
    ( S, ACADEMICO, ARAUCA, FEMENINO ) 0.5, 0.5;
    ( S, ACADEMICO, ARAUCA, MASCULINO ) 0.5, 0.5;
    ( S, ACADEMICO, ARAUCA, MIXTO ) 0.5, 0.5;
    ( S, ACADEMICO, ATLANTICO, FEMENINO ) 0.5, 0.5;
    ( S, ACADEMICO, ATLANTICO, MASCULINO ) 0.5, 0.5;
    ( S, ACADEMICO, ATLANTICO, MIXTO ) 0.0, 1.0;
    ( S, ACADEMICO, BOGOTA, FEMENINO ) 0.0, 1.0;
    ( S, ACADEMICO, BOGOTA, MASCULINO ) 0.0, 1.0;
    ( S, ACADEMICO, BOGOTA, MIXTO ) 0.022912825915196208, 0.9770871740848038;
    ( S, ACADEMICO, BOLIVAR, FEMENINO ) 1.0, 0.0;
    ( S, ACADEMICO, BOLIVAR, MASCULINO ) 0.5, 0.5;
    ( S, ACADEMICO, BOLIVAR, MIXTO ) 0.11715481171548117, 0.8828451882845189;
    ( S, ACADEMICO, BOYACA, FEMENINO ) 0.5, 0.5;
    ( S, ACADEMICO, BOYACA, MASCULINO ) 0.5, 0.5;
    ( S, ACADEMICO, BOYACA, MIXTO ) 0.3711864406779661, 0.6288135593220339;
    ( S, ACADEMICO, CALDAS, FEMENINO ) 0.5, 0.5;
    ( S, ACADEMICO, CALDAS, MASCULINO ) 0.5, 0.5;
    ( S, ACADEMICO, CALDAS, MIXTO ) 0.0, 1.0;
    ( S, ACADEMICO, CAQUETA, FEMENINO ) 0.5, 0.5;
    ( S, ACADEMICO, CAQUETA, MASCULINO ) 0.5, 0.5;
    ( S, ACADEMICO, CAQUETA, MIXTO ) 0.5, 0.5;
    ( S, ACADEMICO, CASANARE, FEMENINO ) 0.5, 0.5;
    ( S, ACADEMICO, CASANARE, MASCULINO ) 0.5, 0.5;
    ( S, ACADEMICO, CASANARE, MIXTO ) 1.0, 0.0;
    ( S, ACADEMICO, CAUCA, FEMENINO ) 0.5, 0.5;
    ( S, ACADEMICO, CAUCA, MASCULINO ) 0.5, 0.5;
    ( S, ACADEMICO, CAUCA, MIXTO ) 0.05380333951762523, 0.9461966604823747;
    ( S, ACADEMICO, CESAR, FEMENINO ) 0.5, 0.5;
    ( S, ACADEMICO, CESAR, MASCULINO ) 0.5, 0.5;
    ( S, ACADEMICO, CESAR, MIXTO ) 0.0, 1.0;
    ( S, ACADEMICO, CHOCO, FEMENINO ) 0.5, 0.5;
    ( S, ACADEMICO, CHOCO, MASCULINO ) 0.5, 0.5;
    ( S, ACADEMICO, CHOCO, MIXTO ) 0.7722772277227723, 0.22772277227722773;
    ( S, ACADEMICO, CORDOBA, FEMENINO ) 0.5, 0.5;
    ( S, ACADEMICO, CORDOBA, MASCULINO ) 0.5, 0.5;
    ( S, ACADEMICO, CORDOBA, MIXTO ) 0.6086956521739131, 0.391304347826087;
    ( S, ACADEMICO, CUNDINAMARCA, FEMENINO ) 1.0, 0.0;
    ( S, ACADEMICO, CUNDINAMARCA, MASCULINO ) 0.5, 0.5;
    ( S, ACADEMICO, CUNDINAMARCA, MIXTO ) 0.9111111111111111, 0.08888888888888889;
    ( S, ACADEMICO, GUAINIA, FEMENINO ) 0.5, 0.5;
    ( S, ACADEMICO, GUAINIA, MASCULINO ) 0.5, 0.5;
    ( S, ACADEMICO, GUAINIA, MIXTO ) 0.5, 0.5;
    ( S, ACADEMICO, GUAVIARE, FEMENINO ) 0.5, 0.5;
    ( S, ACADEMICO, GUAVIARE, MASCULINO ) 0.5, 0.5;
    ( S, ACADEMICO, GUAVIARE, MIXTO ) 0.5, 0.5;
    ( S, ACADEMICO, HUILA, FEMENINO ) 0.5, 0.5;
    ( S, ACADEMICO, HUILA, MASCULINO ) 0.5, 0.5;
    ( S, ACADEMICO, HUILA, MIXTO ) 0.26119402985074625, 0.7388059701492538;
    ( S, ACADEMICO, LA_GUAJIRA, FEMENINO ) 0.5, 0.5;
    ( S, ACADEMICO, LA_GUAJIRA, MASCULINO ) 0.5, 0.5;
    ( S, ACADEMICO, LA_GUAJIRA, MIXTO ) 0.9057437407952872, 0.09425625920471281;
    ( S, ACADEMICO, MAGDALENA, FEMENINO ) 0.5, 0.5;
    ( S, ACADEMICO, MAGDALENA, MASCULINO ) 0.5, 0.5;
    ( S, ACADEMICO, MAGDALENA, MIXTO ) 0.0, 1.0;
    ( S, ACADEMICO, META, FEMENINO ) 0.5, 0.5;
    ( S, ACADEMICO, META, MASCULINO ) 0.5, 0.5;
    ( S, ACADEMICO, META, MIXTO ) 1.0, 0.0;
    ( S, ACADEMICO, NARINO, FEMENINO ) 0.5, 0.5;
    ( S, ACADEMICO, NARINO, MASCULINO ) 0.5, 0.5;
    ( S, ACADEMICO, NARINO, MIXTO ) 0.00273224043715847, 0.9972677595628415;
    ( S, ACADEMICO, NORTE_SANTANDER, FEMENINO ) 0.5, 0.5;
    ( S, ACADEMICO, NORTE_SANTANDER, MASCULINO ) 0.5, 0.5;
    ( S, ACADEMICO, NORTE_SANTANDER, MIXTO ) 0.0, 1.0;
    ( S, ACADEMICO, PUTUMAYO, FEMENINO ) 0.5, 0.5;
    ( S, ACADEMICO, PUTUMAYO, MASCULINO ) 0.5, 0.5;
    ( S, ACADEMICO, PUTUMAYO, MIXTO ) 0.20032706459525756, 0.7996729354047425;
    ( S, ACADEMICO, QUINDIO, FEMENINO ) 0.5, 0.5;
    ( S, ACADEMICO, QUINDIO, MASCULINO ) 0.5, 0.5;
    ( S, ACADEMICO, QUINDIO, MIXTO ) 1.0, 0.0;
    ( S, ACADEMICO, RISARALDA, FEMENINO ) 0.5, 0.5;
    ( S, ACADEMICO, RISARALDA, MASCULINO ) 0.5, 0.5;
    ( S, ACADEMICO, RISARALDA, MIXTO ) 0.4131227217496962, 0.5868772782503038;
    ( S, ACADEMICO, SANTANDER, FEMENINO ) 0.0, 1.0;
    ( S, ACADEMICO, SANTANDER, MASCULINO ) 0.5, 0.5;
    ( S, ACADEMICO, SANTANDER, MIXTO ) 0.0, 1.0;
    ( S, ACADEMICO, SAN_ANDRES, FEMENINO ) 0.5, 0.5;
    ( S, ACADEMICO, SAN_ANDRES, MASCULINO ) 0.5, 0.5;
    ( S, ACADEMICO, SAN_ANDRES, MIXTO ) 1.0, 0.0;
    ( S, ACADEMICO, SUCRE, FEMENINO ) 0.5, 0.5;
    ( S, ACADEMICO, SUCRE, MASCULINO ) 0.5, 0.5;
    ( S, ACADEMICO, SUCRE, MIXTO ) 1.0, 0.0;
    ( S, ACADEMICO, TOLIMA, FEMENINO ) 0.5, 0.5;
    ( S, ACADEMICO, TOLIMA, MASCULINO ) 0.5, 0.5;
    ( S, ACADEMICO, TOLIMA, MIXTO ) 0.5485714285714286, 0.4514285714285714;
    ( S, ACADEMICO, VALLE, FEMENINO ) 0.0, 1.0;
    ( S, ACADEMICO, VALLE, MASCULINO ) 0.5, 0.5;
    ( S, ACADEMICO, VALLE, MIXTO ) 0.24216380182002023, 0.7578361981799798;
    ( S, ACADEMICO, VAUPES, FEMENINO ) 0.5, 0.5;
    ( S, ACADEMICO, VAUPES, MASCULINO ) 0.5, 0.5;
    ( S, ACADEMICO, VAUPES, MIXTO ) 0.5, 0.5;
    ( S, ACADEMICO, VICHADA, FEMENINO ) 0.5, 0.5;
    ( S, ACADEMICO, VICHADA, MASCULINO ) 0.5, 0.5;
    ( S, ACADEMICO, VICHADA, MIXTO ) 0.5, 0.5;
    ( S, NO_APLICA, AMAZONAS, FEMENINO ) 0.5, 0.5;
    ( S, NO_APLICA, AMAZONAS, MASCULINO ) 0.5, 0.5;
    ( S, NO_APLICA, AMAZONAS, MIXTO ) 0.5, 0.5;
    ( S, NO_APLICA, ANTIOQUIA, FEMENINO ) 0.5, 0.5;
    ( S, NO_APLICA, ANTIOQUIA, MASCULINO ) 0.5, 0.5;
    ( S, NO_APLICA, ANTIOQUIA, MIXTO ) 0.5, 0.5;
    ( S, NO_APLICA, ARAUCA, FEMENINO ) 0.5, 0.5;
    ( S, NO_APLICA, ARAUCA, MASCULINO ) 0.5, 0.5;
    ( S, NO_APLICA, ARAUCA, MIXTO ) 0.5, 0.5;
    ( S, NO_APLICA, ATLANTICO, FEMENINO ) 0.5, 0.5;
    ( S, NO_APLICA, ATLANTICO, MASCULINO ) 0.5, 0.5;
    ( S, NO_APLICA, ATLANTICO, MIXTO ) 0.5, 0.5;
    ( S, NO_APLICA, BOGOTA, FEMENINO ) 0.5, 0.5;
    ( S, NO_APLICA, BOGOTA, MASCULINO ) 0.5, 0.5;
    ( S, NO_APLICA, BOGOTA, MIXTO ) 0.5, 0.5;
    ( S, NO_APLICA, BOLIVAR, FEMENINO ) 0.5, 0.5;
    ( S, NO_APLICA, BOLIVAR, MASCULINO ) 0.5, 0.5;
    ( S, NO_APLICA, BOLIVAR, MIXTO ) 0.5, 0.5;
    ( S, NO_APLICA, BOYACA, FEMENINO ) 0.5, 0.5;
    ( S, NO_APLICA, BOYACA, MASCULINO ) 0.5, 0.5;
    ( S, NO_APLICA, BOYACA, MIXTO ) 0.5, 0.5;
    ( S, NO_APLICA, CALDAS, FEMENINO ) 0.5, 0.5;
    ( S, NO_APLICA, CALDAS, MASCULINO ) 0.5, 0.5;
    ( S, NO_APLICA, CALDAS, MIXTO ) 0.5, 0.5;
    ( S, NO_APLICA, CAQUETA, FEMENINO ) 0.5, 0.5;
    ( S, NO_APLICA, CAQUETA, MASCULINO ) 0.5, 0.5;
    ( S, NO_APLICA, CAQUETA, MIXTO ) 0.5, 0.5;
    ( S, NO_APLICA, CASANARE, FEMENINO ) 0.5, 0.5;
    ( S, NO_APLICA, CASANARE, MASCULINO ) 0.5, 0.5;
    ( S, NO_APLICA, CASANARE, MIXTO ) 0.5, 0.5;
    ( S, NO_APLICA, CAUCA, FEMENINO ) 0.5, 0.5;
    ( S, NO_APLICA, CAUCA, MASCULINO ) 0.5, 0.5;
    ( S, NO_APLICA, CAUCA, MIXTO ) 0.0, 1.0;
    ( S, NO_APLICA, CESAR, FEMENINO ) 0.5, 0.5;
    ( S, NO_APLICA, CESAR, MASCULINO ) 0.5, 0.5;
    ( S, NO_APLICA, CESAR, MIXTO ) 0.5, 0.5;
    ( S, NO_APLICA, CHOCO, FEMENINO ) 0.5, 0.5;
    ( S, NO_APLICA, CHOCO, MASCULINO ) 0.5, 0.5;
    ( S, NO_APLICA, CHOCO, MIXTO ) 0.5, 0.5;
    ( S, NO_APLICA, CORDOBA, FEMENINO ) 0.5, 0.5;
    ( S, NO_APLICA, CORDOBA, MASCULINO ) 0.5, 0.5;
    ( S, NO_APLICA, CORDOBA, MIXTO ) 0.5, 0.5;
    ( S, NO_APLICA, CUNDINAMARCA, FEMENINO ) 0.5, 0.5;
    ( S, NO_APLICA, CUNDINAMARCA, MASCULINO ) 0.5, 0.5;
    ( S, NO_APLICA, CUNDINAMARCA, MIXTO ) 0.5, 0.5;
    ( S, NO_APLICA, GUAINIA, FEMENINO ) 0.5, 0.5;
    ( S, NO_APLICA, GUAINIA, MASCULINO ) 0.5, 0.5;
    ( S, NO_APLICA, GUAINIA, MIXTO ) 0.5, 0.5;
    ( S, NO_APLICA, GUAVIARE, FEMENINO ) 0.5, 0.5;
    ( S, NO_APLICA, GUAVIARE, MASCULINO ) 0.5, 0.5;
    ( S, NO_APLICA, GUAVIARE, MIXTO ) 0.5, 0.5;
    ( S, NO_APLICA, HUILA, FEMENINO ) 0.5, 0.5;
    ( S, NO_APLICA, HUILA, MASCULINO ) 0.5, 0.5;
    ( S, NO_APLICA, HUILA, MIXTO ) 0.5, 0.5;
    ( S, NO_APLICA, LA_GUAJIRA, FEMENINO ) 0.5, 0.5;
    ( S, NO_APLICA, LA_GUAJIRA, MASCULINO ) 0.5, 0.5;
    ( S, NO_APLICA, LA_GUAJIRA, MIXTO ) 0.5, 0.5;
    ( S, NO_APLICA, MAGDALENA, FEMENINO ) 0.5, 0.5;
    ( S, NO_APLICA, MAGDALENA, MASCULINO ) 0.5, 0.5;
    ( S, NO_APLICA, MAGDALENA, MIXTO ) 0.5, 0.5;
    ( S, NO_APLICA, META, FEMENINO ) 0.5, 0.5;
    ( S, NO_APLICA, META, MASCULINO ) 0.5, 0.5;
    ( S, NO_APLICA, META, MIXTO ) 0.5, 0.5;
    ( S, NO_APLICA, NARINO, FEMENINO ) 0.5, 0.5;
    ( S, NO_APLICA, NARINO, MASCULINO ) 0.5, 0.5;
    ( S, NO_APLICA, NARINO, MIXTO ) 0.5, 0.5;
    ( S, NO_APLICA, NORTE_SANTANDER, FEMENINO ) 0.5, 0.5;
    ( S, NO_APLICA, NORTE_SANTANDER, MASCULINO ) 0.5, 0.5;
    ( S, NO_APLICA, NORTE_SANTANDER, MIXTO ) 0.5, 0.5;
    ( S, NO_APLICA, PUTUMAYO, FEMENINO ) 0.5, 0.5;
    ( S, NO_APLICA, PUTUMAYO, MASCULINO ) 0.5, 0.5;
    ( S, NO_APLICA, PUTUMAYO, MIXTO ) 0.5, 0.5;
    ( S, NO_APLICA, QUINDIO, FEMENINO ) 0.5, 0.5;
    ( S, NO_APLICA, QUINDIO, MASCULINO ) 0.5, 0.5;
    ( S, NO_APLICA, QUINDIO, MIXTO ) 0.5, 0.5;
    ( S, NO_APLICA, RISARALDA, FEMENINO ) 0.5, 0.5;
    ( S, NO_APLICA, RISARALDA, MASCULINO ) 0.5, 0.5;
    ( S, NO_APLICA, RISARALDA, MIXTO ) 0.5, 0.5;
    ( S, NO_APLICA, SANTANDER, FEMENINO ) 0.5, 0.5;
    ( S, NO_APLICA, SANTANDER, MASCULINO ) 0.5, 0.5;
    ( S, NO_APLICA, SANTANDER, MIXTO ) 0.5, 0.5;
    ( S, NO_APLICA, SAN_ANDRES, FEMENINO ) 0.5, 0.5;
    ( S, NO_APLICA, SAN_ANDRES, MASCULINO ) 0.5, 0.5;
    ( S, NO_APLICA, SAN_ANDRES, MIXTO ) 0.5, 0.5;
    ( S, NO_APLICA, SUCRE, FEMENINO ) 0.5, 0.5;
    ( S, NO_APLICA, SUCRE, MASCULINO ) 0.5, 0.5;
    ( S, NO_APLICA, SUCRE, MIXTO ) 0.5, 0.5;
    ( S, NO_APLICA, TOLIMA, FEMENINO ) 0.5, 0.5;
    ( S, NO_APLICA, TOLIMA, MASCULINO ) 0.5, 0.5;
    ( S, NO_APLICA, TOLIMA, MIXTO ) 0.5, 0.5;
    ( S, NO_APLICA, VALLE, FEMENINO ) 0.5, 0.5;
    ( S, NO_APLICA, VALLE, MASCULINO ) 0.5, 0.5;
    ( S, NO_APLICA, VALLE, MIXTO ) 0.5, 0.5;
    ( S, NO_APLICA, VAUPES, FEMENINO ) 0.5, 0.5;
    ( S, NO_APLICA, VAUPES, MASCULINO ) 0.5, 0.5;
    ( S, NO_APLICA, VAUPES, MIXTO ) 0.5, 0.5;
    ( S, NO_APLICA, VICHADA, FEMENINO ) 0.5, 0.5;
    ( S, NO_APLICA, VICHADA, MASCULINO ) 0.5, 0.5;
    ( S, NO_APLICA, VICHADA, MIXTO ) 0.5, 0.5;
    ( S, TECNICO, AMAZONAS, FEMENINO ) 0.5, 0.5;
    ( S, TECNICO, AMAZONAS, MASCULINO ) 0.5, 0.5;
    ( S, TECNICO, AMAZONAS, MIXTO ) 0.5, 0.5;
    ( S, TECNICO, ANTIOQUIA, FEMENINO ) 0.5, 0.5;
    ( S, TECNICO, ANTIOQUIA, MASCULINO ) 0.5, 0.5;
    ( S, TECNICO, ANTIOQUIA, MIXTO ) 0.5, 0.5;
    ( S, TECNICO, ARAUCA, FEMENINO ) 0.5, 0.5;
    ( S, TECNICO, ARAUCA, MASCULINO ) 0.5, 0.5;
    ( S, TECNICO, ARAUCA, MIXTO ) 0.5, 0.5;
    ( S, TECNICO, ATLANTICO, FEMENINO ) 0.5, 0.5;
    ( S, TECNICO, ATLANTICO, MASCULINO ) 0.5, 0.5;
    ( S, TECNICO, ATLANTICO, MIXTO ) 0.0, 1.0;
    ( S, TECNICO, BOGOTA, FEMENINO ) 0.5, 0.5;
    ( S, TECNICO, BOGOTA, MASCULINO ) 0.5, 0.5;
    ( S, TECNICO, BOGOTA, MIXTO ) 0.5, 0.5;
    ( S, TECNICO, BOLIVAR, FEMENINO ) 0.5, 0.5;
    ( S, TECNICO, BOLIVAR, MASCULINO ) 0.5, 0.5;
    ( S, TECNICO, BOLIVAR, MIXTO ) 1.0, 0.0;
    ( S, TECNICO, BOYACA, FEMENINO ) 0.5, 0.5;
    ( S, TECNICO, BOYACA, MASCULINO ) 0.5, 0.5;
    ( S, TECNICO, BOYACA, MIXTO ) 0.5, 0.5;
    ( S, TECNICO, CALDAS, FEMENINO ) 0.5, 0.5;
    ( S, TECNICO, CALDAS, MASCULINO ) 0.5, 0.5;
    ( S, TECNICO, CALDAS, MIXTO ) 1.0, 0.0;
    ( S, TECNICO, CAQUETA, FEMENINO ) 0.5, 0.5;
    ( S, TECNICO, CAQUETA, MASCULINO ) 0.5, 0.5;
    ( S, TECNICO, CAQUETA, MIXTO ) 0.0, 1.0;
    ( S, TECNICO, CASANARE, FEMENINO ) 0.5, 0.5;
    ( S, TECNICO, CASANARE, MASCULINO ) 0.5, 0.5;
    ( S, TECNICO, CASANARE, MIXTO ) 0.5, 0.5;
    ( S, TECNICO, CAUCA, FEMENINO ) 0.5, 0.5;
    ( S, TECNICO, CAUCA, MASCULINO ) 0.5, 0.5;
    ( S, TECNICO, CAUCA, MIXTO ) 0.5485232067510548, 0.45147679324894513;
    ( S, TECNICO, CESAR, FEMENINO ) 0.5, 0.5;
    ( S, TECNICO, CESAR, MASCULINO ) 0.5, 0.5;
    ( S, TECNICO, CESAR, MIXTO ) 0.5, 0.5;
    ( S, TECNICO, CHOCO, FEMENINO ) 0.5, 0.5;
    ( S, TECNICO, CHOCO, MASCULINO ) 0.5, 0.5;
    ( S, TECNICO, CHOCO, MIXTO ) 0.5, 0.5;
    ( S, TECNICO, CORDOBA, FEMENINO ) 0.5, 0.5;
    ( S, TECNICO, CORDOBA, MASCULINO ) 0.5, 0.5;
    ( S, TECNICO, CORDOBA, MIXTO ) 0.5, 0.5;
    ( S, TECNICO, CUNDINAMARCA, FEMENINO ) 0.5, 0.5;
    ( S, TECNICO, CUNDINAMARCA, MASCULINO ) 0.5, 0.5;
    ( S, TECNICO, CUNDINAMARCA, MIXTO ) 0.5, 0.5;
    ( S, TECNICO, GUAINIA, FEMENINO ) 0.5, 0.5;
    ( S, TECNICO, GUAINIA, MASCULINO ) 0.5, 0.5;
    ( S, TECNICO, GUAINIA, MIXTO ) 0.5, 0.5;
    ( S, TECNICO, GUAVIARE, FEMENINO ) 0.5, 0.5;
    ( S, TECNICO, GUAVIARE, MASCULINO ) 0.5, 0.5;
    ( S, TECNICO, GUAVIARE, MIXTO ) 0.5, 0.5;
    ( S, TECNICO, HUILA, FEMENINO ) 0.5, 0.5;
    ( S, TECNICO, HUILA, MASCULINO ) 0.5, 0.5;
    ( S, TECNICO, HUILA, MIXTO ) 0.5, 0.5;
    ( S, TECNICO, LA_GUAJIRA, FEMENINO ) 0.5, 0.5;
    ( S, TECNICO, LA_GUAJIRA, MASCULINO ) 0.5, 0.5;
    ( S, TECNICO, LA_GUAJIRA, MIXTO ) 0.5, 0.5;
    ( S, TECNICO, MAGDALENA, FEMENINO ) 0.5, 0.5;
    ( S, TECNICO, MAGDALENA, MASCULINO ) 0.5, 0.5;
    ( S, TECNICO, MAGDALENA, MIXTO ) 1.0, 0.0;
    ( S, TECNICO, META, FEMENINO ) 0.5, 0.5;
    ( S, TECNICO, META, MASCULINO ) 0.5, 0.5;
    ( S, TECNICO, META, MIXTO ) 0.5, 0.5;
    ( S, TECNICO, NARINO, FEMENINO ) 0.5, 0.5;
    ( S, TECNICO, NARINO, MASCULINO ) 0.5, 0.5;
    ( S, TECNICO, NARINO, MIXTO ) 0.49280575539568344, 0.5071942446043165;
    ( S, TECNICO, NORTE_SANTANDER, FEMENINO ) 0.5, 0.5;
    ( S, TECNICO, NORTE_SANTANDER, MASCULINO ) 0.5, 0.5;
    ( S, TECNICO, NORTE_SANTANDER, MIXTO ) 0.0, 1.0;
    ( S, TECNICO, PUTUMAYO, FEMENINO ) 0.5, 0.5;
    ( S, TECNICO, PUTUMAYO, MASCULINO ) 0.5, 0.5;
    ( S, TECNICO, PUTUMAYO, MIXTO ) 0.5, 0.5;
    ( S, TECNICO, QUINDIO, FEMENINO ) 0.5, 0.5;
    ( S, TECNICO, QUINDIO, MASCULINO ) 0.5, 0.5;
    ( S, TECNICO, QUINDIO, MIXTO ) 0.5, 0.5;
    ( S, TECNICO, RISARALDA, FEMENINO ) 0.5, 0.5;
    ( S, TECNICO, RISARALDA, MASCULINO ) 0.5, 0.5;
    ( S, TECNICO, RISARALDA, MIXTO ) 0.5, 0.5;
    ( S, TECNICO, SANTANDER, FEMENINO ) 0.5, 0.5;
    ( S, TECNICO, SANTANDER, MASCULINO ) 0.5, 0.5;
    ( S, TECNICO, SANTANDER, MIXTO ) 0.5, 0.5;
    ( S, TECNICO, SAN_ANDRES, FEMENINO ) 0.5, 0.5;
    ( S, TECNICO, SAN_ANDRES, MASCULINO ) 0.5, 0.5;
    ( S, TECNICO, SAN_ANDRES, MIXTO ) 0.5, 0.5;
    ( S, TECNICO, SUCRE, FEMENINO ) 0.5, 0.5;
    ( S, TECNICO, SUCRE, MASCULINO ) 0.5, 0.5;
    ( S, TECNICO, SUCRE, MIXTO ) 0.5, 0.5;
    ( S, TECNICO, TOLIMA, FEMENINO ) 0.5, 0.5;
    ( S, TECNICO, TOLIMA, MASCULINO ) 0.5, 0.5;
    ( S, TECNICO, TOLIMA, MIXTO ) 0.5, 0.5;
    ( S, TECNICO, VALLE, FEMENINO ) 0.5, 0.5;
    ( S, TECNICO, VALLE, MASCULINO ) 0.5, 0.5;
    ( S, TECNICO, VALLE, MIXTO ) 0.14682539682539683, 0.8531746031746031;
    ( S, TECNICO, VAUPES, FEMENINO ) 0.5, 0.5;
    ( S, TECNICO, VAUPES, MASCULINO ) 0.5, 0.5;
    ( S, TECNICO, VAUPES, MIXTO ) 0.5, 0.5;
    ( S, TECNICO, VICHADA, FEMENINO ) 0.5, 0.5;
    ( S, TECNICO, VICHADA, MASCULINO ) 0.5, 0.5;
    ( S, TECNICO, VICHADA, MIXTO ) 0.5, 0.5;
    ( S, TECNICO_ACADEMICO, AMAZONAS, FEMENINO ) 0.5, 0.5;
    ( S, TECNICO_ACADEMICO, AMAZONAS, MASCULINO ) 0.5, 0.5;
    ( S, TECNICO_ACADEMICO, AMAZONAS, MIXTO ) 0.5, 0.5;
    ( S, TECNICO_ACADEMICO, ANTIOQUIA, FEMENINO ) 0.5, 0.5;
    ( S, TECNICO_ACADEMICO, ANTIOQUIA, MASCULINO ) 0.5, 0.5;
    ( S, TECNICO_ACADEMICO, ANTIOQUIA, MIXTO ) 0.0, 1.0;
    ( S, TECNICO_ACADEMICO, ARAUCA, FEMENINO ) 0.5, 0.5;
    ( S, TECNICO_ACADEMICO, ARAUCA, MASCULINO ) 0.5, 0.5;
    ( S, TECNICO_ACADEMICO, ARAUCA, MIXTO ) 0.5, 0.5;
    ( S, TECNICO_ACADEMICO, ATLANTICO, FEMENINO ) 0.5, 0.5;
    ( S, TECNICO_ACADEMICO, ATLANTICO, MASCULINO ) 0.5, 0.5;
    ( S, TECNICO_ACADEMICO, ATLANTICO, MIXTO ) 0.5, 0.5;
    ( S, TECNICO_ACADEMICO, BOGOTA, FEMENINO ) 0.5, 0.5;
    ( S, TECNICO_ACADEMICO, BOGOTA, MASCULINO ) 0.5, 0.5;
    ( S, TECNICO_ACADEMICO, BOGOTA, MIXTO ) 0.0, 1.0;
    ( S, TECNICO_ACADEMICO, BOLIVAR, FEMENINO ) 0.5, 0.5;
    ( S, TECNICO_ACADEMICO, BOLIVAR, MASCULINO ) 0.5, 0.5;
    ( S, TECNICO_ACADEMICO, BOLIVAR, MIXTO ) 1.0, 0.0;
    ( S, TECNICO_ACADEMICO, BOYACA, FEMENINO ) 0.5, 0.5;
    ( S, TECNICO_ACADEMICO, BOYACA, MASCULINO ) 0.5, 0.5;
    ( S, TECNICO_ACADEMICO, BOYACA, MIXTO ) 0.0, 1.0;
    ( S, TECNICO_ACADEMICO, CALDAS, FEMENINO ) 0.5, 0.5;
    ( S, TECNICO_ACADEMICO, CALDAS, MASCULINO ) 0.5, 0.5;
    ( S, TECNICO_ACADEMICO, CALDAS, MIXTO ) 1.0, 0.0;
    ( S, TECNICO_ACADEMICO, CAQUETA, FEMENINO ) 0.5, 0.5;
    ( S, TECNICO_ACADEMICO, CAQUETA, MASCULINO ) 0.5, 0.5;
    ( S, TECNICO_ACADEMICO, CAQUETA, MIXTO ) 0.5, 0.5;
    ( S, TECNICO_ACADEMICO, CASANARE, FEMENINO ) 0.5, 0.5;
    ( S, TECNICO_ACADEMICO, CASANARE, MASCULINO ) 0.5, 0.5;
    ( S, TECNICO_ACADEMICO, CASANARE, MIXTO ) 0.5, 0.5;
    ( S, TECNICO_ACADEMICO, CAUCA, FEMENINO ) 0.5, 0.5;
    ( S, TECNICO_ACADEMICO, CAUCA, MASCULINO ) 0.5, 0.5;
    ( S, TECNICO_ACADEMICO, CAUCA, MIXTO ) 0.8611940298507462, 0.13880597014925372;
    ( S, TECNICO_ACADEMICO, CESAR, FEMENINO ) 0.5, 0.5;
    ( S, TECNICO_ACADEMICO, CESAR, MASCULINO ) 0.5, 0.5;
    ( S, TECNICO_ACADEMICO, CESAR, MIXTO ) 0.0, 1.0;
    ( S, TECNICO_ACADEMICO, CHOCO, FEMENINO ) 0.5, 0.5;
    ( S, TECNICO_ACADEMICO, CHOCO, MASCULINO ) 0.5, 0.5;
    ( S, TECNICO_ACADEMICO, CHOCO, MIXTO ) 0.3111111111111111, 0.6888888888888889;
    ( S, TECNICO_ACADEMICO, CORDOBA, FEMENINO ) 0.5, 0.5;
    ( S, TECNICO_ACADEMICO, CORDOBA, MASCULINO ) 0.5, 0.5;
    ( S, TECNICO_ACADEMICO, CORDOBA, MIXTO ) 0.5, 0.5;
    ( S, TECNICO_ACADEMICO, CUNDINAMARCA, FEMENINO ) 0.5, 0.5;
    ( S, TECNICO_ACADEMICO, CUNDINAMARCA, MASCULINO ) 0.5, 0.5;
    ( S, TECNICO_ACADEMICO, CUNDINAMARCA, MIXTO ) 0.0, 1.0;
    ( S, TECNICO_ACADEMICO, GUAINIA, FEMENINO ) 0.5, 0.5;
    ( S, TECNICO_ACADEMICO, GUAINIA, MASCULINO ) 0.5, 0.5;
    ( S, TECNICO_ACADEMICO, GUAINIA, MIXTO ) 0.5, 0.5;
    ( S, TECNICO_ACADEMICO, GUAVIARE, FEMENINO ) 0.5, 0.5;
    ( S, TECNICO_ACADEMICO, GUAVIARE, MASCULINO ) 0.5, 0.5;
    ( S, TECNICO_ACADEMICO, GUAVIARE, MIXTO ) 0.5, 0.5;
    ( S, TECNICO_ACADEMICO, HUILA, FEMENINO ) 0.5, 0.5;
    ( S, TECNICO_ACADEMICO, HUILA, MASCULINO ) 0.5, 0.5;
    ( S, TECNICO_ACADEMICO, HUILA, MIXTO ) 0.5, 0.5;
    ( S, TECNICO_ACADEMICO, LA_GUAJIRA, FEMENINO ) 0.5, 0.5;
    ( S, TECNICO_ACADEMICO, LA_GUAJIRA, MASCULINO ) 0.5, 0.5;
    ( S, TECNICO_ACADEMICO, LA_GUAJIRA, MIXTO ) 0.0, 1.0;
    ( S, TECNICO_ACADEMICO, MAGDALENA, FEMENINO ) 0.5, 0.5;
    ( S, TECNICO_ACADEMICO, MAGDALENA, MASCULINO ) 0.5, 0.5;
    ( S, TECNICO_ACADEMICO, MAGDALENA, MIXTO ) 0.39299610894941633, 0.6070038910505836;
    ( S, TECNICO_ACADEMICO, META, FEMENINO ) 0.5, 0.5;
    ( S, TECNICO_ACADEMICO, META, MASCULINO ) 0.5, 0.5;
    ( S, TECNICO_ACADEMICO, META, MIXTO ) 0.5, 0.5;
    ( S, TECNICO_ACADEMICO, NARINO, FEMENINO ) 0.5, 0.5;
    ( S, TECNICO_ACADEMICO, NARINO, MASCULINO ) 0.5, 0.5;
    ( S, TECNICO_ACADEMICO, NARINO, MIXTO ) 0.0, 1.0;
    ( S, TECNICO_ACADEMICO, NORTE_SANTANDER, FEMENINO ) 0.5, 0.5;
    ( S, TECNICO_ACADEMICO, NORTE_SANTANDER, MASCULINO ) 0.5, 0.5;
    ( S, TECNICO_ACADEMICO, NORTE_SANTANDER, MIXTO ) 0.0, 1.0;
    ( S, TECNICO_ACADEMICO, PUTUMAYO, FEMENINO ) 0.5, 0.5;
    ( S, TECNICO_ACADEMICO, PUTUMAYO, MASCULINO ) 0.5, 0.5;
    ( S, TECNICO_ACADEMICO, PUTUMAYO, MIXTO ) 0.10540915395284327, 0.8945908460471568;
    ( S, TECNICO_ACADEMICO, QUINDIO, FEMENINO ) 0.5, 0.5;
    ( S, TECNICO_ACADEMICO, QUINDIO, MASCULINO ) 0.5, 0.5;
    ( S, TECNICO_ACADEMICO, QUINDIO, MIXTO ) 0.5, 0.5;
    ( S, TECNICO_ACADEMICO, RISARALDA, FEMENINO ) 0.5, 0.5;
    ( S, TECNICO_ACADEMICO, RISARALDA, MASCULINO ) 0.5, 0.5;
    ( S, TECNICO_ACADEMICO, RISARALDA, MIXTO ) 0.027777777777777776, 0.9722222222222222;
    ( S, TECNICO_ACADEMICO, SANTANDER, FEMENINO ) 0.5, 0.5;
    ( S, TECNICO_ACADEMICO, SANTANDER, MASCULINO ) 0.5, 0.5;
    ( S, TECNICO_ACADEMICO, SANTANDER, MIXTO ) 0.5, 0.5;
    ( S, TECNICO_ACADEMICO, SAN_ANDRES, FEMENINO ) 0.5, 0.5;
    ( S, TECNICO_ACADEMICO, SAN_ANDRES, MASCULINO ) 0.5, 0.5;
    ( S, TECNICO_ACADEMICO, SAN_ANDRES, MIXTO ) 0.5, 0.5;
    ( S, TECNICO_ACADEMICO, SUCRE, FEMENINO ) 0.5, 0.5;
    ( S, TECNICO_ACADEMICO, SUCRE, MASCULINO ) 0.5, 0.5;
    ( S, TECNICO_ACADEMICO, SUCRE, MIXTO ) 0.5, 0.5;
    ( S, TECNICO_ACADEMICO, TOLIMA, FEMENINO ) 0.5, 0.5;
    ( S, TECNICO_ACADEMICO, TOLIMA, MASCULINO ) 0.5, 0.5;
    ( S, TECNICO_ACADEMICO, TOLIMA, MIXTO ) 0.0, 1.0;
    ( S, TECNICO_ACADEMICO, VALLE, FEMENINO ) 0.5, 0.5;
    ( S, TECNICO_ACADEMICO, VALLE, MASCULINO ) 0.5, 0.5;
    ( S, TECNICO_ACADEMICO, VALLE, MIXTO ) 0.5524475524475524, 0.44755244755244755;
    ( S, TECNICO_ACADEMICO, VAUPES, FEMENINO ) 0.5, 0.5;
    ( S, TECNICO_ACADEMICO, VAUPES, MASCULINO ) 0.5, 0.5;
    ( S, TECNICO_ACADEMICO, VAUPES, MIXTO ) 0.5, 0.5;
    ( S, TECNICO_ACADEMICO, VICHADA, FEMENINO ) 0.5, 0.5;
    ( S, TECNICO_ACADEMICO, VICHADA, MASCULINO ) 0.5, 0.5;
    ( S, TECNICO_ACADEMICO, VICHADA, MIXTO ) 0.5, 0.5;

}
probability ( cole_bilingue ) {
    table 0.982043842638146, 0.01795615736185393 ;
}
probability ( cole_caracter | cole_bilingue, cole_genero ) {
    ( N, FEMENINO ) 0.5666992665036675, 0.0, 0.0989242053789731, 0.3343765281173594;
    ( N, MASCULINO ) 0.7023927834263436, 0.0, 0.15121168106413882, 0.14639553550951762;
    ( N, MIXTO ) 0.5045227538192545, 0.0020393901898473742, 0.11990387072648492, 0.3735339852644133;
    ( S, FEMENINO ) 1.0, 0.0, 0.0, 0.0;
    ( S, MASCULINO ) 1.0, 0.0, 0.0, 0.0;
    ( S, MIXTO ) 0.6225719495758345, 0.0015063823039720922, 0.09101720447157695, 0.2849044636486165;

}
probability ( cole_depto_ubicacion | cole_bilingue, cole_caracter, cole_genero ) {
    ( N, ACADEMICO, FEMENINO ) 0.0, 0.15514712227111915, 0.0, 0.11295193718181033, 0.3229355423246182, 0.02964017602899301, 0.0, 0.028345845198032616, 0.0, 0.0, 0.05975494002933816, 0.0, 0.0, 0.009793769954266977, 0.029597031667961, 0.0, 0.0, 0.0, 0.0, 0.01993269479679006, 0.0, 0.08240572957114504, 0.01177841056173958, 0.0, 0.008240572957114506, 0.026706359478816118, 0.01674001208042109, 0.0, 0.0, 0.027051514367072222, 0.05897834153076193, 0.0, 0.0;
    ( N, ACADEMICO, MASCULINO ) 0.0, 0.09936874183717893, 0.0, 0.016760992599042228, 0.46430126251632564, 0.10633434915106661, 0.030583369612538092, 0.07455376578145408, 0.0, 0.0, 0.0, 0.0, 0.0, 0.0, 0.03156290814105355, 0.0, 0.0, 0.029494993469743144, 0.0, 0.019264257727470615, 0.0, 0.0, 0.053330430996952546, 0.0, 0.0, 0.033521985198084456, 0.00848933391380061, 0.0, 0.0, 0.0, 0.03243360905528951, 0.0, 0.0;
    ( N, ACADEMICO, MIXTO ) 0.00039492097287923143, 0.13907227912327544, 0.004753360405452199, 0.05783732117663556, 0.24400821893502977, 0.040300540583853454, 0.019560035142243092, 0.020286918672035303, 0.003351104777112899, 0.005832238715419375, 0.02230874234840615, 0.018132023798281237, 0.003912007028448619, 0.06623082272340937, 0.07287007386166891, 0.0001931678671691893, 0.0016984463579987237, 0.019849071506451807, 0.02254340553518946, 0.019750341263232, 0.007377581652772889, 0.03175536648952458, 0.018817412008459322, 0.003312471203679061, 0.005976756897523731, 0.017456651699734142, 0.03615387036862153, 0.0013636220549054622, 0.02725527062102754, 0.02428620895898259, 0.04281601547632334, 0.00024611017150444857, 0.00029762160274956573;
    ( N, NO_APLICA, FEMENINO ) 0.030303030303030304, 0.030303030303030304, 0.030303030303030304, 0.030303030303030304, 0.030303030303030304, 0.030303030303030304, 0.030303030303030304, 0.030303030303030304, 0.030303030303030304, 0.030303030303030304, 0.030303030303030304, 0.030303030303030304, 0.030303030303030304, 0.030303030303030304, 0.030303030303030304, 0.030303030303030304, 0.030303030303030304, 0.030303030303030304, 0.030303030303030304, 0.030303030303030304, 0.030303030303030304, 0.030303030303030304, 0.030303030303030304, 0.030303030303030304, 0.030303030303030304, 0.030303030303030304, 0.030303030303030304, 0.030303030303030304, 0.030303030303030304, 0.030303030303030304, 0.030303030303030304, 0.030303030303030304, 0.030303030303030304;
    ( N, NO_APLICA, MASCULINO ) 0.030303030303030304, 0.030303030303030304, 0.030303030303030304, 0.030303030303030304, 0.030303030303030304, 0.030303030303030304, 0.030303030303030304, 0.030303030303030304, 0.030303030303030304, 0.030303030303030304, 0.030303030303030304, 0.030303030303030304, 0.030303030303030304, 0.030303030303030304, 0.030303030303030304, 0.030303030303030304, 0.030303030303030304, 0.030303030303030304, 0.030303030303030304, 0.030303030303030304, 0.030303030303030304, 0.030303030303030304, 0.030303030303030304, 0.030303030303030304, 0.030303030303030304, 0.030303030303030304, 0.030303030303030304, 0.030303030303030304, 0.030303030303030304, 0.030303030303030304, 0.030303030303030304, 0.030303030303030304, 0.030303030303030304;
    ( N, NO_APLICA, MIXTO ) 0.0, 0.07221238938053097, 0.0, 0.19575221238938054, 0.06725663716814159, 0.10867256637168142, 0.05203539823008849, 0.0, 0.0, 0.0, 0.06548672566371681, 0.0, 0.0, 0.03964601769911504, 0.13132743362831859, 0.0, 0.0, 0.029026548672566373, 0.018407079646017697, 0.027256637168141595, 0.05592920353982301, 0.008141592920353982, 0.01415929203539823, 0.0, 0.0, 0.0, 0.0, 0.0, 0.0, 0.0017699115044247787, 0.11292035398230088, 0.0, 0.0;
    ( N, TECNICO, FEMENINO ) 0.0, 0.0, 0.0, 0.31512605042016806, 0.07414730598121602, 0.0, 0.0, 0.0, 0.0, 0.0, 0.04745427582797825, 0.0, 0.0, 0.0, 0.0, 0.0, 0.0, 0.05388037567968364, 0.09293129016312407, 0.02718734552644587, 0.0, 0.0, 0.06104794859120118, 0.0, 0.0, 0.21725160652496292, 0.0, 0.0, 0.0, 0.0, 0.11097380128521997, 0.0, 0.0;
    ( N, TECNICO, MASCULINO ) 0.0, 0.0, 0.0, 0.0, 0.24721941354903942, 0.18149646107178968, 0.0, 0.13043478260869565, 0.0, 0.0, 0.12537917087967643, 0.0, 0.0, 0.0, 0.0, 0.0, 0.0, 0.0, 0.0, 0.0, 0.0, 0.0, 0.10768452982810921, 0.0, 0.0, 0.0, 0.0, 0.0, 0.0, 0.0, 0.2077856420626896, 0.0, 0.0;
    ( N, TECNICO, MIXTO ) 0.001661719638997429, 0.0572691203121143, 0.020560770170928337, 0.10636209834249487, 0.01625595299019224, 0.07764324805982191, 0.05771465383851216, 0.02703906847368643, 0.007411510418861722, 0.022053909556694142, 0.0731698506258542, 0.02820106807631869, 0.005165780616883313, 0.0030344445581692186, 0.031000704424629575, 0.0, 0.001101792369335252, 0.02234290427651978, 0.01429319718470977, 0.032873149380166534, 0.0087059659347474, 0.03779208034053211, 0.028556290752771038, 0.006568609152703605, 0.001414869982479695, 0.023324282179261017, 0.031506445184324446, 0.0, 0.020193506047816584, 0.053277380744522644, 0.1762024889670245, 0.0008609634361472188, 0.006442173962779889;
    ( N, TECNICO_ACADEMICO, FEMENINO ) 0.0, 0.26674466218192455, 0.013234863995320268, 0.1942819537876572, 0.13307984790874525, 0.01001754899093302, 0.06646680315881837, 0.012357414448669201, 0.03626791459491079, 0.0, 0.0, 0.0, 0.025372916057326705, 0.0, 0.00804328751096812, 0.0, 0.0, 0.0, 0.0, 0.023691137759578824, 0.0, 0.009066978648727698, 0.06222579701667154, 0.013600467973091548, 0.0, 0.01674466218192454, 0.029028955835039484, 0.0, 0.0, 0.0662474407721556, 0.01352734717753729, 0.0, 0.0;
    ( N, TECNICO_ACADEMICO, MASCULINO ) 0.0, 0.0, 0.0, 0.0, 0.4010443864229765, 0.0, 0.0, 0.0, 0.0, 0.0, 0.07728459530026109, 0.0, 0.0, 0.0, 0.0, 0.0, 0.0, 0.0, 0.0, 0.0, 0.0, 0.0, 0.5216710182767624, 0.0, 0.0, 0.0, 0.0, 0.0, 0.0, 0.0, 0.0, 0.0, 0.0;
    ( N, TECNICO_ACADEMICO, MIXTO ) 0.002707633555329651, 0.16146270191293055, 0.0044682717915218795, 0.033622199116395385, 0.04582877551572592, 0.04953945105193786, 0.040977840309532186, 0.016500910275092477, 0.013453131462276731, 0.014633976645935845, 0.0067120709048250375, 0.03397587287844059, 0.015430225771414657, 0.008963600592161971, 0.06273747357110002, 0.0012446224194377553, 0.0019616331610703753, 0.03248580473343048, 0.006799039862705005, 0.04199634343848203, 0.04481027238677608, 0.0274647968984937, 0.04324096585791978, 0.010407285292969429, 0.024409287511644177, 0.018680932152616993, 0.07284326647675222, 0.0012523529934715303, 0.012525462578223746, 0.032130198327876835, 0.11497102967380843, 0.0015480474502634193, 0.00021452342943725287;
    ( S, ACADEMICO, FEMENINO ) 0.0, 0.0, 0.0, 0.0, 0.6997282608695652, 0.10733695652173914, 0.0, 0.0, 0.0, 0.0, 0.0, 0.0, 0.0, 0.0, 0.06521739130434782, 0.0, 0.0, 0.0, 0.0, 0.0, 0.0, 0.0, 0.0, 0.0, 0.0, 0.0, 0.06385869565217392, 0.0, 0.0, 0.0, 0.06385869565217392, 0.0, 0.0;
    ( S, ACADEMICO, MASCULINO ) 0.0, 0.46742209631728043, 0.0, 0.0, 0.5325779036827195, 0.0, 0.0, 0.0, 0.0, 0.0, 0.0, 0.0, 0.0, 0.0, 0.0, 0.0, 0.0, 0.0, 0.0, 0.0, 0.0, 0.0, 0.0, 0.0, 0.0, 0.0, 0.0, 0.0, 0.0, 0.0, 0.0, 0.0, 0.0;
    ( S, ACADEMICO, MIXTO ) 0.005603311047437122, 0.048328557784145174, 0.0, 0.05144858325374085, 0.24177013689907673, 0.045654250238777457, 0.03756765361349888, 0.002228589621139764, 0.0, 0.001973893664438077, 0.03432028016555237, 0.007577204711875199, 0.006431072906717606, 0.010251512257242917, 0.06017191977077364, 0.0, 0.0, 0.017064629099013053, 0.04323463865011143, 0.004457179242279528, 0.009805794333014964, 0.046609360076408785, 0.015982171283030883, 0.07787328876154091, 0.006303724928366762, 0.052403693091372175, 0.01801973893664438, 0.012607449856733524, 0.005221267112384591, 0.011142948105698823, 0.1259471505889844, 0.0, 0.0;
    ( S, NO_APLICA, FEMENINO ) 0.030303030303030304, 0.030303030303030304, 0.030303030303030304, 0.030303030303030304, 0.030303030303030304, 0.030303030303030304, 0.030303030303030304, 0.030303030303030304, 0.030303030303030304, 0.030303030303030304, 0.030303030303030304, 0.030303030303030304, 0.030303030303030304, 0.030303030303030304, 0.030303030303030304, 0.030303030303030304, 0.030303030303030304, 0.030303030303030304, 0.030303030303030304, 0.030303030303030304, 0.030303030303030304, 0.030303030303030304, 0.030303030303030304, 0.030303030303030304, 0.030303030303030304, 0.030303030303030304, 0.030303030303030304, 0.030303030303030304, 0.030303030303030304, 0.030303030303030304, 0.030303030303030304, 0.030303030303030304, 0.030303030303030304;
    ( S, NO_APLICA, MASCULINO ) 0.030303030303030304, 0.030303030303030304, 0.030303030303030304, 0.030303030303030304, 0.030303030303030304, 0.030303030303030304, 0.030303030303030304, 0.030303030303030304, 0.030303030303030304, 0.030303030303030304, 0.030303030303030304, 0.030303030303030304, 0.030303030303030304, 0.030303030303030304, 0.030303030303030304, 0.030303030303030304, 0.030303030303030304, 0.030303030303030304, 0.030303030303030304, 0.030303030303030304, 0.030303030303030304, 0.030303030303030304, 0.030303030303030304, 0.030303030303030304, 0.030303030303030304, 0.030303030303030304, 0.030303030303030304, 0.030303030303030304, 0.030303030303030304, 0.030303030303030304, 0.030303030303030304, 0.030303030303030304, 0.030303030303030304;
    ( S, NO_APLICA, MIXTO ) 0.0, 0.0, 0.0, 0.0, 0.0, 0.0, 0.0, 0.0, 0.0, 0.0, 1.0, 0.0, 0.0, 0.0, 0.0, 0.0, 0.0, 0.0, 0.0, 0.0, 0.0, 0.0, 0.0, 0.0, 0.0, 0.0, 0.0, 0.0, 0.0, 0.0, 0.0, 0.0, 0.0;
    ( S, TECNICO, FEMENINO ) 0.030303030303030304, 0.030303030303030304, 0.030303030303030304, 0.030303030303030304, 0.030303030303030304, 0.030303030303030304, 0.030303030303030304, 0.030303030303030304, 0.030303030303030304, 0.030303030303030304, 0.030303030303030304, 0.030303030303030304, 0.030303030303030304, 0.030303030303030304, 0.030303030303030304, 0.030303030303030304, 0.030303030303030304, 0.030303030303030304, 0.030303030303030304, 0.030303030303030304, 0.030303030303030304, 0.030303030303030304, 0.030303030303030304, 0.030303030303030304, 0.030303030303030304, 0.030303030303030304, 0.030303030303030304, 0.030303030303030304, 0.030303030303030304, 0.030303030303030304, 0.030303030303030304, 0.030303030303030304, 0.030303030303030304;
    ( S, TECNICO, MASCULINO ) 0.030303030303030304, 0.030303030303030304, 0.030303030303030304, 0.030303030303030304, 0.030303030303030304, 0.030303030303030304, 0.030303030303030304, 0.030303030303030304, 0.030303030303030304, 0.030303030303030304, 0.030303030303030304, 0.030303030303030304, 0.030303030303030304, 0.030303030303030304, 0.030303030303030304, 0.030303030303030304, 0.030303030303030304, 0.030303030303030304, 0.030303030303030304, 0.030303030303030304, 0.030303030303030304, 0.030303030303030304, 0.030303030303030304, 0.030303030303030304, 0.030303030303030304, 0.030303030303030304, 0.030303030303030304, 0.030303030303030304, 0.030303030303030304, 0.030303030303030304, 0.030303030303030304, 0.030303030303030304, 0.030303030303030304;
    ( S, TECNICO, MIXTO ) 0.0, 0.0, 0.0, 0.021341463414634148, 0.0, 0.05749128919860627, 0.0, 0.014372822299651568, 0.05749128919860627, 0.0, 0.41289198606271776, 0.0, 0.0, 0.0, 0.0, 0.0, 0.0, 0.0, 0.0, 0.016986062717770034, 0.0, 0.1210801393728223, 0.07883275261324042, 0.0, 0.0, 0.0, 0.0, 0.0, 0.0, 0.0, 0.21951219512195122, 0.0, 0.0;
    ( S, TECNICO_ACADEMICO, FEMENINO ) 0.030303030303030304, 0.030303030303030304, 0.030303030303030304, 0.030303030303030304, 0.030303030303030304, 0.030303030303030304, 0.030303030303030304, 0.030303030303030304, 0.030303030303030304, 0.030303030303030304, 0.030303030303030304, 0.030303030303030304, 0.030303030303030304, 0.030303030303030304, 0.030303030303030304, 0.030303030303030304, 0.030303030303030304, 0.030303030303030304, 0.030303030303030304, 0.030303030303030304, 0.030303030303030304, 0.030303030303030304, 0.030303030303030304, 0.030303030303030304, 0.030303030303030304, 0.030303030303030304, 0.030303030303030304, 0.030303030303030304, 0.030303030303030304, 0.030303030303030304, 0.030303030303030304, 0.030303030303030304, 0.030303030303030304;
    ( S, TECNICO_ACADEMICO, MASCULINO ) 0.030303030303030304, 0.030303030303030304, 0.030303030303030304, 0.030303030303030304, 0.030303030303030304, 0.030303030303030304, 0.030303030303030304, 0.030303030303030304, 0.030303030303030304, 0.030303030303030304, 0.030303030303030304, 0.030303030303030304, 0.030303030303030304, 0.030303030303030304, 0.030303030303030304, 0.030303030303030304, 0.030303030303030304, 0.030303030303030304, 0.030303030303030304, 0.030303030303030304, 0.030303030303030304, 0.030303030303030304, 0.030303030303030304, 0.030303030303030304, 0.030303030303030304, 0.030303030303030304, 0.030303030303030304, 0.030303030303030304, 0.030303030303030304, 0.030303030303030304, 0.030303030303030304, 0.030303030303030304, 0.030303030303030304;
    ( S, TECNICO_ACADEMICO, MIXTO ) 0.0, 0.031028245443161264, 0.0, 0.0, 0.05649088632252679, 0.021984138026993182, 0.013218310839014888, 0.014053151523584249, 0.0, 0.0, 0.09322387644357868, 0.0711005983024906, 0.04382913593989147, 0.0, 0.01683595380548212, 0.0, 0.0, 0.0, 0.05440378461110338, 0.035759009322387646, 0.0, 0.1469319604842076, 0.005704744677890636, 0.10032002226241825, 0.0, 0.05509948518157785, 0.0, 0.0, 0.0, 0.12063447892027271, 0.11938221789341867, 0.0, 0.0;

}
probability ( cole_genero | cole_bilingue ) {
    ( N ) 0.02841858561602669, 0.009089083580519441, 0.9624923308034539;
    ( S ) 0.027968839065171953, 0.013414402432072961, 0.9586167585027551;

}
probability ( cole_jornada | cole_area_ubicacion, cole_caracter, cole_depto_ubicacion, cole_naturaleza ) {
    ( RURAL, ACADEMICO, AMAZONAS, NO_OFICIAL ) 0.16666666666666666, 0.16666666666666666, 0.16666666666666666, 0.16666666666666666, 0.16666666666666666, 0.16666666666666666;
    ( RURAL, ACADEMICO, AMAZONAS, OFICIAL ) 0.4044943820224719, 0.45692883895131087, 0.13857677902621723, 0.0, 0.0, 0.0;
    ( RURAL, ACADEMICO, ANTIOQUIA, NO_OFICIAL ) 0.6037929267042542, 0.08815991799077397, 0.0, 0.005638134290107637, 0.0, 0.30240902101486417;
    ( RURAL, ACADEMICO, ANTIOQUIA, OFICIAL ) 0.42025474179703726, 0.3252111311089575, 0.02810466565139139, 0.11221099266232867, 0.08500623009829711, 0.029212238681988092;
    ( RURAL, ACADEMICO, ARAUCA, NO_OFICIAL ) 0.16666666666666666, 0.16666666666666666, 0.16666666666666666, 0.16666666666666666, 0.16666666666666666, 0.16666666666666666;
    ( RURAL, ACADEMICO, ARAUCA, OFICIAL ) 0.0, 0.7215756490599821, 0.0, 0.170993733213966, 0.0, 0.10743061772605192;
    ( RURAL, ACADEMICO, ATLANTICO, NO_OFICIAL ) 0.0, 1.0, 0.0, 0.0, 0.0, 0.0;
    ( RURAL, ACADEMICO, ATLANTICO, OFICIAL ) 0.0, 0.6626637554585153, 0.0, 0.0, 0.0, 0.3373362445414847;
    ( RURAL, ACADEMICO, BOGOTA, NO_OFICIAL ) 0.6868421052631579, 0.2324561403508772, 0.0, 0.0, 0.0, 0.08070175438596491;
    ( RURAL, ACADEMICO, BOGOTA, OFICIAL ) 0.0, 0.4240924092409241, 0.0, 0.0462046204620462, 0.05115511551155116, 0.47854785478547857;
    ( RURAL, ACADEMICO, BOLIVAR, NO_OFICIAL ) 0.6487252124645893, 0.35127478753541075, 0.0, 0.0, 0.0, 0.0;
    ( RURAL, ACADEMICO, BOLIVAR, OFICIAL ) 0.0, 0.8113499304159579, 0.050564403896706356, 0.03231792175661048, 0.03139013452914798, 0.07437760940157724;
    ( RURAL, ACADEMICO, BOYACA, NO_OFICIAL ) 0.48494983277591974, 0.0, 0.0, 0.5150501672240803, 0.0, 0.0;
    ( RURAL, ACADEMICO, BOYACA, OFICIAL ) 0.49502487562189057, 0.3835820895522388, 0.004975124378109453, 0.010447761194029851, 0.023880597014925373, 0.08208955223880597;
    ( RURAL, ACADEMICO, CALDAS, NO_OFICIAL ) 1.0, 0.0, 0.0, 0.0, 0.0, 0.0;
    ( RURAL, ACADEMICO, CALDAS, OFICIAL ) 0.3093841642228739, 0.33944281524926684, 0.02749266862170088, 0.04618768328445748, 0.008064516129032258, 0.2694281524926686;
    ( RURAL, ACADEMICO, CAQUETA, NO_OFICIAL ) 0.16666666666666666, 0.16666666666666666, 0.16666666666666666, 0.16666666666666666, 0.16666666666666666, 0.16666666666666666;
    ( RURAL, ACADEMICO, CAQUETA, OFICIAL ) 0.0, 0.40654205607476634, 0.0, 0.028037383177570093, 0.0, 0.5654205607476636;
    ( RURAL, ACADEMICO, CASANARE, NO_OFICIAL ) 1.0, 0.0, 0.0, 0.0, 0.0, 0.0;
    ( RURAL, ACADEMICO, CASANARE, OFICIAL ) 0.0, 0.6388415672913118, 0.0, 0.10732538330494037, 0.0, 0.25383304940374785;
    ( RURAL, ACADEMICO, CAUCA, NO_OFICIAL ) 0.16666666666666666, 0.16666666666666666, 0.16666666666666666, 0.16666666666666666, 0.16666666666666666, 0.16666666666666666;
    ( RURAL, ACADEMICO, CAUCA, OFICIAL ) 0.10186994138989673, 0.8601730393524979, 0.0, 0.003907340217694669, 0.03404967903991069, 0.0;
    ( RURAL, ACADEMICO, CESAR, NO_OFICIAL ) 0.16666666666666666, 0.16666666666666666, 0.16666666666666666, 0.16666666666666666, 0.16666666666666666, 0.16666666666666666;
    ( RURAL, ACADEMICO, CESAR, OFICIAL ) 0.0, 0.7378587196467992, 0.002207505518763797, 0.0011037527593818985, 0.045805739514348784, 0.2130242825607064;
    ( RURAL, ACADEMICO, CHOCO, NO_OFICIAL ) 0.16666666666666666, 0.16666666666666666, 0.16666666666666666, 0.16666666666666666, 0.16666666666666666, 0.16666666666666666;
    ( RURAL, ACADEMICO, CHOCO, OFICIAL ) 0.0, 0.7906976744186046, 0.0, 0.0, 0.0, 0.20930232558139536;
    ( RURAL, ACADEMICO, CORDOBA, NO_OFICIAL ) 0.0, 0.2, 0.0, 0.0, 0.8, 0.0;
    ( RURAL, ACADEMICO, CORDOBA, OFICIAL ) 0.0, 0.6210737357986188, 0.0, 0.005569169079973268, 0.1012846216677805, 0.2720724734536274;
    ( RURAL, ACADEMICO, CUNDINAMARCA, NO_OFICIAL ) 0.868350740830702, 0.13164925916929804, 0.0, 0.0, 0.0, 0.0;
    ( RURAL, ACADEMICO, CUNDINAMARCA, OFICIAL ) 0.044857083246401, 0.4629668266221573, 0.049864385562278325, 0.06363446693094095, 0.05090757354475276, 0.32776966409346964;
    ( RURAL, ACADEMICO, GUAINIA, NO_OFICIAL ) 0.16666666666666666, 0.16666666666666666, 0.16666666666666666, 0.16666666666666666, 0.16666666666666666, 0.16666666666666666;
    ( RURAL, ACADEMICO, GUAINIA, OFICIAL ) 0.0, 0.5172413793103449, 0.0, 0.0, 0.0, 0.4827586206896552;
    ( RURAL, ACADEMICO, GUAVIARE, NO_OFICIAL ) 0.16666666666666666, 0.16666666666666666, 0.16666666666666666, 0.16666666666666666, 0.16666666666666666, 0.16666666666666666;
    ( RURAL, ACADEMICO, GUAVIARE, OFICIAL ) 0.0, 0.821826280623608, 0.0400890868596882, 0.0, 0.0, 0.13808463251670378;
    ( RURAL, ACADEMICO, HUILA, NO_OFICIAL ) 0.16666666666666666, 0.16666666666666666, 0.16666666666666666, 0.16666666666666666, 0.16666666666666666, 0.16666666666666666;
    ( RURAL, ACADEMICO, HUILA, OFICIAL ) 0.471881390593047, 0.2361963190184049, 0.028629856850715747, 0.10148261758691207, 0.041666666666666664, 0.12014314928425358;
    ( RURAL, ACADEMICO, LA_GUAJIRA, NO_OFICIAL ) 0.0, 0.7163120567375887, 0.0, 0.0, 0.28368794326241137, 0.0;
    ( RURAL, ACADEMICO, LA_GUAJIRA, OFICIAL ) 0.06657608695652174, 0.49184782608695654, 0.0, 0.030570652173913044, 0.05672554347826087, 0.35427989130434784;
    ( RURAL, ACADEMICO, MAGDALENA, NO_OFICIAL ) 0.0, 1.0, 0.0, 0.0, 0.0, 0.0;
    ( RURAL, ACADEMICO, MAGDALENA, OFICIAL ) 0.0, 0.5858862144420132, 0.0, 0.0, 0.13785557986870897, 0.2762582056892779;
    ( RURAL, ACADEMICO, META, NO_OFICIAL ) 0.30434782608695654, 0.39855072463768115, 0.0, 0.2971014492753623, 0.0, 0.0;
    ( RURAL, ACADEMICO, META, OFICIAL ) 0.0, 1.0, 0.0, 0.0, 0.0, 0.0;
    ( RURAL, ACADEMICO, NARINO, NO_OFICIAL ) 0.16666666666666666, 0.16666666666666666, 0.16666666666666666, 0.16666666666666666, 0.16666666666666666, 0.16666666666666666;
    ( RURAL, ACADEMICO, NARINO, OFICIAL ) 0.0, 0.890580592773041, 0.020097442143727162, 0.011368250101502234, 0.004060089321965083, 0.07389362565976451;
    ( RURAL, ACADEMICO, NORTE_SANTANDER, NO_OFICIAL ) 0.16666666666666666, 0.16666666666666666, 0.16666666666666666, 0.16666666666666666, 0.16666666666666666, 0.16666666666666666;
    ( RURAL, ACADEMICO, NORTE_SANTANDER, OFICIAL ) 0.33356497567755383, 0.5267546907574705, 0.0, 0.0, 0.0, 0.13968033356497567;
    ( RURAL, ACADEMICO, PUTUMAYO, NO_OFICIAL ) 0.16666666666666666, 0.16666666666666666, 0.16666666666666666, 0.16666666666666666, 0.16666666666666666, 0.16666666666666666;
    ( RURAL, ACADEMICO, PUTUMAYO, OFICIAL ) 0.03089675960813866, 0.5629238884702336, 0.0, 0.08967596081386586, 0.0, 0.3165033911077619;
    ( RURAL, ACADEMICO, QUINDIO, NO_OFICIAL ) 0.7610921501706485, 0.23890784982935154, 0.0, 0.0, 0.0, 0.0;
    ( RURAL, ACADEMICO, QUINDIO, OFICIAL ) 0.0, 0.5384615384615384, 0.0, 0.0, 0.0, 0.46153846153846156;
    ( RURAL, ACADEMICO, RISARALDA, NO_OFICIAL ) 0.5352941176470588, 0.4647058823529412, 0.0, 0.0, 0.0, 0.0;
    ( RURAL, ACADEMICO, RISARALDA, OFICIAL ) 0.0, 0.37956541840036984, 0.021729079981507166, 0.3065187239944521, 0.0, 0.29218677762367085;
    ( RURAL, ACADEMICO, SANTANDER, NO_OFICIAL ) 1.0, 0.0, 0.0, 0.0, 0.0, 0.0;
    ( RURAL, ACADEMICO, SANTANDER, OFICIAL ) 0.14543670264965652, 0.6973503434739942, 0.04003925417075564, 0.028655544651619236, 0.025318940137389598, 0.06319921491658488;
    ( RURAL, ACADEMICO, SAN_ANDRES, NO_OFICIAL ) 0.16666666666666666, 0.16666666666666666, 0.16666666666666666, 0.16666666666666666, 0.16666666666666666, 0.16666666666666666;
    ( RURAL, ACADEMICO, SAN_ANDRES, OFICIAL ) 0.0, 0.4411764705882353, 0.02022058823529412, 0.0, 0.0, 0.5386029411764706;
    ( RURAL, ACADEMICO, SUCRE, NO_OFICIAL ) 1.0, 0.0, 0.0, 0.0, 0.0, 0.0;
    ( RURAL, ACADEMICO, SUCRE, OFICIAL ) 0.0, 0.7718518518518519, 0.0, 0.07308641975308643, 0.08962962962962963, 0.0654320987654321;
    ( RURAL, ACADEMICO, TOLIMA, NO_OFICIAL ) 0.16666666666666666, 0.16666666666666666, 0.16666666666666666, 0.16666666666666666, 0.16666666666666666, 0.16666666666666666;
    ( RURAL, ACADEMICO, TOLIMA, OFICIAL ) 0.02477829942618675, 0.7423056859676578, 0.00495565988523735, 0.053208137715179966, 0.05268648930620762, 0.12206572769953052;
    ( RURAL, ACADEMICO, VALLE, NO_OFICIAL ) 0.9768637532133676, 0.02313624678663239, 0.0, 0.0, 0.0, 0.0;
    ( RURAL, ACADEMICO, VALLE, OFICIAL ) 0.0, 0.5092592592592593, 0.04660493827160494, 0.08549382716049382, 0.13919753086419753, 0.21944444444444444;
    ( RURAL, ACADEMICO, VAUPES, NO_OFICIAL ) 0.16666666666666666, 0.16666666666666666, 0.16666666666666666, 0.16666666666666666, 0.16666666666666666, 0.16666666666666666;
    ( RURAL, ACADEMICO, VAUPES, OFICIAL ) 0.0, 1.0, 0.0, 0.0, 0.0, 0.0;
    ( RURAL, ACADEMICO, VICHADA, NO_OFICIAL ) 0.16666666666666666, 0.16666666666666666, 0.16666666666666666, 0.16666666666666666, 0.16666666666666666, 0.16666666666666666;
    ( RURAL, ACADEMICO, VICHADA, OFICIAL ) 0.0, 1.0, 0.0, 0.0, 0.0, 0.0;
    ( RURAL, NO_APLICA, AMAZONAS, NO_OFICIAL ) 0.16666666666666666, 0.16666666666666666, 0.16666666666666666, 0.16666666666666666, 0.16666666666666666, 0.16666666666666666;
    ( RURAL, NO_APLICA, AMAZONAS, OFICIAL ) 0.16666666666666666, 0.16666666666666666, 0.16666666666666666, 0.16666666666666666, 0.16666666666666666, 0.16666666666666666;
    ( RURAL, NO_APLICA, ANTIOQUIA, NO_OFICIAL ) 0.16666666666666666, 0.16666666666666666, 0.16666666666666666, 0.16666666666666666, 0.16666666666666666, 0.16666666666666666;
    ( RURAL, NO_APLICA, ANTIOQUIA, OFICIAL ) 1.0, 0.0, 0.0, 0.0, 0.0, 0.0;
    ( RURAL, NO_APLICA, ARAUCA, NO_OFICIAL ) 0.16666666666666666, 0.16666666666666666, 0.16666666666666666, 0.16666666666666666, 0.16666666666666666, 0.16666666666666666;
    ( RURAL, NO_APLICA, ARAUCA, OFICIAL ) 0.16666666666666666, 0.16666666666666666, 0.16666666666666666, 0.16666666666666666, 0.16666666666666666, 0.16666666666666666;
    ( RURAL, NO_APLICA, ATLANTICO, NO_OFICIAL ) 0.16666666666666666, 0.16666666666666666, 0.16666666666666666, 0.16666666666666666, 0.16666666666666666, 0.16666666666666666;
    ( RURAL, NO_APLICA, ATLANTICO, OFICIAL ) 0.16666666666666666, 0.16666666666666666, 0.16666666666666666, 0.16666666666666666, 0.16666666666666666, 0.16666666666666666;
    ( RURAL, NO_APLICA, BOGOTA, NO_OFICIAL ) 0.16666666666666666, 0.16666666666666666, 0.16666666666666666, 0.16666666666666666, 0.16666666666666666, 0.16666666666666666;
    ( RURAL, NO_APLICA, BOGOTA, OFICIAL ) 0.16666666666666666, 0.16666666666666666, 0.16666666666666666, 0.16666666666666666, 0.16666666666666666, 0.16666666666666666;
    ( RURAL, NO_APLICA, BOLIVAR, NO_OFICIAL ) 0.16666666666666666, 0.16666666666666666, 0.16666666666666666, 0.16666666666666666, 0.16666666666666666, 0.16666666666666666;
    ( RURAL, NO_APLICA, BOLIVAR, OFICIAL ) 0.16666666666666666, 0.16666666666666666, 0.16666666666666666, 0.16666666666666666, 0.16666666666666666, 0.16666666666666666;
    ( RURAL, NO_APLICA, BOYACA, NO_OFICIAL ) 0.16666666666666666, 0.16666666666666666, 0.16666666666666666, 0.16666666666666666, 0.16666666666666666, 0.16666666666666666;
    ( RURAL, NO_APLICA, BOYACA, OFICIAL ) 0.16666666666666666, 0.16666666666666666, 0.16666666666666666, 0.16666666666666666, 0.16666666666666666, 0.16666666666666666;
    ( RURAL, NO_APLICA, CALDAS, NO_OFICIAL ) 0.16666666666666666, 0.16666666666666666, 0.16666666666666666, 0.16666666666666666, 0.16666666666666666, 0.16666666666666666;
    ( RURAL, NO_APLICA, CALDAS, OFICIAL ) 0.16666666666666666, 0.16666666666666666, 0.16666666666666666, 0.16666666666666666, 0.16666666666666666, 0.16666666666666666;
    ( RURAL, NO_APLICA, CAQUETA, NO_OFICIAL ) 0.16666666666666666, 0.16666666666666666, 0.16666666666666666, 0.16666666666666666, 0.16666666666666666, 0.16666666666666666;
    ( RURAL, NO_APLICA, CAQUETA, OFICIAL ) 0.16666666666666666, 0.16666666666666666, 0.16666666666666666, 0.16666666666666666, 0.16666666666666666, 0.16666666666666666;
    ( RURAL, NO_APLICA, CASANARE, NO_OFICIAL ) 0.16666666666666666, 0.16666666666666666, 0.16666666666666666, 0.16666666666666666, 0.16666666666666666, 0.16666666666666666;
    ( RURAL, NO_APLICA, CASANARE, OFICIAL ) 0.16666666666666666, 0.16666666666666666, 0.16666666666666666, 0.16666666666666666, 0.16666666666666666, 0.16666666666666666;
    ( RURAL, NO_APLICA, CAUCA, NO_OFICIAL ) 0.16666666666666666, 0.16666666666666666, 0.16666666666666666, 0.16666666666666666, 0.16666666666666666, 0.16666666666666666;
    ( RURAL, NO_APLICA, CAUCA, OFICIAL ) 0.16666666666666666, 0.16666666666666666, 0.16666666666666666, 0.16666666666666666, 0.16666666666666666, 0.16666666666666666;
    ( RURAL, NO_APLICA, CESAR, NO_OFICIAL ) 0.16666666666666666, 0.16666666666666666, 0.16666666666666666, 0.16666666666666666, 0.16666666666666666, 0.16666666666666666;
    ( RURAL, NO_APLICA, CESAR, OFICIAL ) 0.16666666666666666, 0.16666666666666666, 0.16666666666666666, 0.16666666666666666, 0.16666666666666666, 0.16666666666666666;
    ( RURAL, NO_APLICA, CHOCO, NO_OFICIAL ) 0.16666666666666666, 0.16666666666666666, 0.16666666666666666, 0.16666666666666666, 0.16666666666666666, 0.16666666666666666;
    ( RURAL, NO_APLICA, CHOCO, OFICIAL ) 0.16666666666666666, 0.16666666666666666, 0.16666666666666666, 0.16666666666666666, 0.16666666666666666, 0.16666666666666666;
    ( RURAL, NO_APLICA, CORDOBA, NO_OFICIAL ) 0.16666666666666666, 0.16666666666666666, 0.16666666666666666, 0.16666666666666666, 0.16666666666666666, 0.16666666666666666;
    ( RURAL, NO_APLICA, CORDOBA, OFICIAL ) 0.16666666666666666, 0.16666666666666666, 0.16666666666666666, 0.16666666666666666, 0.16666666666666666, 0.16666666666666666;
    ( RURAL, NO_APLICA, CUNDINAMARCA, NO_OFICIAL ) 0.16666666666666666, 0.16666666666666666, 0.16666666666666666, 0.16666666666666666, 0.16666666666666666, 0.16666666666666666;
    ( RURAL, NO_APLICA, CUNDINAMARCA, OFICIAL ) 0.0, 0.0, 0.0, 1.0, 0.0, 0.0;
    ( RURAL, NO_APLICA, GUAINIA, NO_OFICIAL ) 0.16666666666666666, 0.16666666666666666, 0.16666666666666666, 0.16666666666666666, 0.16666666666666666, 0.16666666666666666;
    ( RURAL, NO_APLICA, GUAINIA, OFICIAL ) 0.16666666666666666, 0.16666666666666666, 0.16666666666666666, 0.16666666666666666, 0.16666666666666666, 0.16666666666666666;
    ( RURAL, NO_APLICA, GUAVIARE, NO_OFICIAL ) 0.16666666666666666, 0.16666666666666666, 0.16666666666666666, 0.16666666666666666, 0.16666666666666666, 0.16666666666666666;
    ( RURAL, NO_APLICA, GUAVIARE, OFICIAL ) 0.16666666666666666, 0.16666666666666666, 0.16666666666666666, 0.16666666666666666, 0.16666666666666666, 0.16666666666666666;
    ( RURAL, NO_APLICA, HUILA, NO_OFICIAL ) 0.16666666666666666, 0.16666666666666666, 0.16666666666666666, 0.16666666666666666, 0.16666666666666666, 0.16666666666666666;
    ( RURAL, NO_APLICA, HUILA, OFICIAL ) 0.47560975609756095, 0.0, 0.524390243902439, 0.0, 0.0, 0.0;
    ( RURAL, NO_APLICA, LA_GUAJIRA, NO_OFICIAL ) 0.16666666666666666, 0.16666666666666666, 0.16666666666666666, 0.16666666666666666, 0.16666666666666666, 0.16666666666666666;
    ( RURAL, NO_APLICA, LA_GUAJIRA, OFICIAL ) 0.16666666666666666, 0.16666666666666666, 0.16666666666666666, 0.16666666666666666, 0.16666666666666666, 0.16666666666666666;
    ( RURAL, NO_APLICA, MAGDALENA, NO_OFICIAL ) 0.16666666666666666, 0.16666666666666666, 0.16666666666666666, 0.16666666666666666, 0.16666666666666666, 0.16666666666666666;
    ( RURAL, NO_APLICA, MAGDALENA, OFICIAL ) 0.16666666666666666, 0.16666666666666666, 0.16666666666666666, 0.16666666666666666, 0.16666666666666666, 0.16666666666666666;
    ( RURAL, NO_APLICA, META, NO_OFICIAL ) 1.0, 0.0, 0.0, 0.0, 0.0, 0.0;
    ( RURAL, NO_APLICA, META, OFICIAL ) 0.0, 1.0, 0.0, 0.0, 0.0, 0.0;
    ( RURAL, NO_APLICA, NARINO, NO_OFICIAL ) 0.16666666666666666, 0.16666666666666666, 0.16666666666666666, 0.16666666666666666, 0.16666666666666666, 0.16666666666666666;
    ( RURAL, NO_APLICA, NARINO, OFICIAL ) 0.0, 1.0, 0.0, 0.0, 0.0, 0.0;
    ( RURAL, NO_APLICA, NORTE_SANTANDER, NO_OFICIAL ) 0.16666666666666666, 0.16666666666666666, 0.16666666666666666, 0.16666666666666666, 0.16666666666666666, 0.16666666666666666;
    ( RURAL, NO_APLICA, NORTE_SANTANDER, OFICIAL ) 1.0, 0.0, 0.0, 0.0, 0.0, 0.0;
    ( RURAL, NO_APLICA, PUTUMAYO, NO_OFICIAL ) 0.16666666666666666, 0.16666666666666666, 0.16666666666666666, 0.16666666666666666, 0.16666666666666666, 0.16666666666666666;
    ( RURAL, NO_APLICA, PUTUMAYO, OFICIAL ) 0.16666666666666666, 0.16666666666666666, 0.16666666666666666, 0.16666666666666666, 0.16666666666666666, 0.16666666666666666;
    ( RURAL, NO_APLICA, QUINDIO, NO_OFICIAL ) 0.16666666666666666, 0.16666666666666666, 0.16666666666666666, 0.16666666666666666, 0.16666666666666666, 0.16666666666666666;
    ( RURAL, NO_APLICA, QUINDIO, OFICIAL ) 0.16666666666666666, 0.16666666666666666, 0.16666666666666666, 0.16666666666666666, 0.16666666666666666, 0.16666666666666666;
    ( RURAL, NO_APLICA, RISARALDA, NO_OFICIAL ) 0.16666666666666666, 0.16666666666666666, 0.16666666666666666, 0.16666666666666666, 0.16666666666666666, 0.16666666666666666;
    ( RURAL, NO_APLICA, RISARALDA, OFICIAL ) 0.16666666666666666, 0.16666666666666666, 0.16666666666666666, 0.16666666666666666, 0.16666666666666666, 0.16666666666666666;
    ( RURAL, NO_APLICA, SANTANDER, NO_OFICIAL ) 0.16666666666666666, 0.16666666666666666, 0.16666666666666666, 0.16666666666666666, 0.16666666666666666, 0.16666666666666666;
    ( RURAL, NO_APLICA, SANTANDER, OFICIAL ) 0.16666666666666666, 0.16666666666666666, 0.16666666666666666, 0.16666666666666666, 0.16666666666666666, 0.16666666666666666;
    ( RURAL, NO_APLICA, SAN_ANDRES, NO_OFICIAL ) 0.16666666666666666, 0.16666666666666666, 0.16666666666666666, 0.16666666666666666, 0.16666666666666666, 0.16666666666666666;
    ( RURAL, NO_APLICA, SAN_ANDRES, OFICIAL ) 0.16666666666666666, 0.16666666666666666, 0.16666666666666666, 0.16666666666666666, 0.16666666666666666, 0.16666666666666666;
    ( RURAL, NO_APLICA, SUCRE, NO_OFICIAL ) 0.16666666666666666, 0.16666666666666666, 0.16666666666666666, 0.16666666666666666, 0.16666666666666666, 0.16666666666666666;
    ( RURAL, NO_APLICA, SUCRE, OFICIAL ) 0.16666666666666666, 0.16666666666666666, 0.16666666666666666, 0.16666666666666666, 0.16666666666666666, 0.16666666666666666;
    ( RURAL, NO_APLICA, TOLIMA, NO_OFICIAL ) 0.16666666666666666, 0.16666666666666666, 0.16666666666666666, 0.16666666666666666, 0.16666666666666666, 0.16666666666666666;
    ( RURAL, NO_APLICA, TOLIMA, OFICIAL ) 0.16666666666666666, 0.16666666666666666, 0.16666666666666666, 0.16666666666666666, 0.16666666666666666, 0.16666666666666666;
    ( RURAL, NO_APLICA, VALLE, NO_OFICIAL ) 0.0, 0.0, 0.0, 1.0, 0.0, 0.0;
    ( RURAL, NO_APLICA, VALLE, OFICIAL ) 0.16666666666666666, 0.16666666666666666, 0.16666666666666666, 0.16666666666666666, 0.16666666666666666, 0.16666666666666666;
    ( RURAL, NO_APLICA, VAUPES, NO_OFICIAL ) 0.16666666666666666, 0.16666666666666666, 0.16666666666666666, 0.16666666666666666, 0.16666666666666666, 0.16666666666666666;
    ( RURAL, NO_APLICA, VAUPES, OFICIAL ) 0.16666666666666666, 0.16666666666666666, 0.16666666666666666, 0.16666666666666666, 0.16666666666666666, 0.16666666666666666;
    ( RURAL, NO_APLICA, VICHADA, NO_OFICIAL ) 0.16666666666666666, 0.16666666666666666, 0.16666666666666666, 0.16666666666666666, 0.16666666666666666, 0.16666666666666666;
    ( RURAL, NO_APLICA, VICHADA, OFICIAL ) 0.16666666666666666, 0.16666666666666666, 0.16666666666666666, 0.16666666666666666, 0.16666666666666666, 0.16666666666666666;
    ( RURAL, TECNICO, AMAZONAS, NO_OFICIAL ) 0.16666666666666666, 0.16666666666666666, 0.16666666666666666, 0.16666666666666666, 0.16666666666666666, 0.16666666666666666;
    ( RURAL, TECNICO, AMAZONAS, OFICIAL ) 1.0, 0.0, 0.0, 0.0, 0.0, 0.0;
    ( RURAL, TECNICO, ANTIOQUIA, NO_OFICIAL ) 0.16666666666666666, 0.16666666666666666, 0.16666666666666666, 0.16666666666666666, 0.16666666666666666, 0.16666666666666666;
    ( RURAL, TECNICO, ANTIOQUIA, OFICIAL ) 0.2991735537190083, 0.2049586776859504, 0.04628099173553719, 0.03884297520661157, 0.41074380165289254, 0.0;
    ( RURAL, TECNICO, ARAUCA, NO_OFICIAL ) 0.16666666666666666, 0.16666666666666666, 0.16666666666666666, 0.16666666666666666, 0.16666666666666666, 0.16666666666666666;
    ( RURAL, TECNICO, ARAUCA, OFICIAL ) 0.0, 0.7533908754623921, 0.0, 0.1812577065351418, 0.0, 0.06535141800246609;
    ( RURAL, TECNICO, ATLANTICO, NO_OFICIAL ) 0.16666666666666666, 0.16666666666666666, 0.16666666666666666, 0.16666666666666666, 0.16666666666666666, 0.16666666666666666;
    ( RURAL, TECNICO, ATLANTICO, OFICIAL ) 0.0, 0.3735670937289278, 0.0, 0.0, 0.0, 0.6264329062710722;
    ( RURAL, TECNICO, BOGOTA, NO_OFICIAL ) 1.0, 0.0, 0.0, 0.0, 0.0, 0.0;
    ( RURAL, TECNICO, BOGOTA, OFICIAL ) 0.0, 0.0, 0.0, 0.0, 0.0, 1.0;
    ( RURAL, TECNICO, BOLIVAR, NO_OFICIAL ) 0.16666666666666666, 0.16666666666666666, 0.16666666666666666, 0.16666666666666666, 0.16666666666666666, 0.16666666666666666;
    ( RURAL, TECNICO, BOLIVAR, OFICIAL ) 0.0, 0.9188489208633094, 0.0017266187050359713, 0.01525179856115108, 0.02762589928057554, 0.036546762589928054;
    ( RURAL, TECNICO, BOYACA, NO_OFICIAL ) 0.16666666666666666, 0.16666666666666666, 0.16666666666666666, 0.16666666666666666, 0.16666666666666666, 0.16666666666666666;
    ( RURAL, TECNICO, BOYACA, OFICIAL ) 0.5311284046692607, 0.17996108949416342, 0.0038910505836575876, 0.005350194552529183, 0.04571984435797665, 0.23394941634241245;
    ( RURAL, TECNICO, CALDAS, NO_OFICIAL ) 0.16666666666666666, 0.16666666666666666, 0.16666666666666666, 0.16666666666666666, 0.16666666666666666, 0.16666666666666666;
    ( RURAL, TECNICO, CALDAS, OFICIAL ) 0.33869565217391306, 0.30217391304347824, 0.0, 0.1082608695652174, 0.0, 0.2508695652173913;
    ( RURAL, TECNICO, CAQUETA, NO_OFICIAL ) 0.16666666666666666, 0.16666666666666666, 0.16666666666666666, 0.16666666666666666, 0.16666666666666666, 0.16666666666666666;
    ( RURAL, TECNICO, CAQUETA, OFICIAL ) 0.0, 0.6311475409836066, 0.0, 0.0, 0.0, 0.36885245901639346;
    ( RURAL, TECNICO, CASANARE, NO_OFICIAL ) 0.16666666666666666, 0.16666666666666666, 0.16666666666666666, 0.16666666666666666, 0.16666666666666666, 0.16666666666666666;
    ( RURAL, TECNICO, CASANARE, OFICIAL ) 0.0, 0.2599118942731278, 0.0, 0.22687224669603523, 0.0, 0.513215859030837;
    ( RURAL, TECNICO, CAUCA, NO_OFICIAL ) 1.0, 0.0, 0.0, 0.0, 0.0, 0.0;
    ( RURAL, TECNICO, CAUCA, OFICIAL ) 0.3386942675159236, 0.4148089171974522, 0.0, 0.01751592356687898, 0.005732484076433121, 0.2232484076433121;
    ( RURAL, TECNICO, CESAR, NO_OFICIAL ) 0.16666666666666666, 0.16666666666666666, 0.16666666666666666, 0.16666666666666666, 0.16666666666666666, 0.16666666666666666;
    ( RURAL, TECNICO, CESAR, OFICIAL ) 0.0, 0.28998505231689087, 0.0, 0.0, 0.0, 0.7100149476831091;
    ( RURAL, TECNICO, CHOCO, NO_OFICIAL ) 0.16666666666666666, 0.16666666666666666, 0.16666666666666666, 0.16666666666666666, 0.16666666666666666, 0.16666666666666666;
    ( RURAL, TECNICO, CHOCO, OFICIAL ) 0.0, 0.24, 0.0, 0.0, 0.0, 0.76;
    ( RURAL, TECNICO, CORDOBA, NO_OFICIAL ) 0.16666666666666666, 0.16666666666666666, 0.16666666666666666, 0.16666666666666666, 0.16666666666666666, 0.16666666666666666;
    ( RURAL, TECNICO, CORDOBA, OFICIAL ) 0.0, 0.49137931034482757, 0.0, 0.0, 0.0, 0.5086206896551724;
    ( RURAL, TECNICO, CUNDINAMARCA, NO_OFICIAL ) 0.5899053627760252, 0.41009463722397477, 0.0, 0.0, 0.0, 0.0;
    ( RURAL, TECNICO, CUNDINAMARCA, OFICIAL ) 0.12755598831548198, 0.249269717624148, 0.014605647517039922, 0.10905550146056475, 0.0, 0.49951314508276534;
    ( RURAL, TECNICO, GUAINIA, NO_OFICIAL ) 0.16666666666666666, 0.16666666666666666, 0.16666666666666666, 0.16666666666666666, 0.16666666666666666, 0.16666666666666666;
    ( RURAL, TECNICO, GUAINIA, OFICIAL ) 0.16666666666666666, 0.16666666666666666, 0.16666666666666666, 0.16666666666666666, 0.16666666666666666, 0.16666666666666666;
    ( RURAL, TECNICO, GUAVIARE, NO_OFICIAL ) 0.16666666666666666, 0.16666666666666666, 0.16666666666666666, 0.16666666666666666, 0.16666666666666666, 0.16666666666666666;
    ( RURAL, TECNICO, GUAVIARE, OFICIAL ) 0.16666666666666666, 0.16666666666666666, 0.16666666666666666, 0.16666666666666666, 0.16666666666666666, 0.16666666666666666;
    ( RURAL, TECNICO, HUILA, NO_OFICIAL ) 0.16666666666666666, 0.16666666666666666, 0.16666666666666666, 0.16666666666666666, 0.16666666666666666, 0.16666666666666666;
    ( RURAL, TECNICO, HUILA, OFICIAL ) 0.48669950738916257, 0.0, 0.019704433497536946, 0.0, 0.0, 0.4935960591133005;
    ( RURAL, TECNICO, LA_GUAJIRA, NO_OFICIAL ) 0.16666666666666666, 0.16666666666666666, 0.16666666666666666, 0.16666666666666666, 0.16666666666666666, 0.16666666666666666;
    ( RURAL, TECNICO, LA_GUAJIRA, OFICIAL ) 0.14361140443505807, 0.24604012671594508, 0.08764519535374868, 0.0, 0.0, 0.5227032734952481;
    ( RURAL, TECNICO, MAGDALENA, NO_OFICIAL ) 0.16666666666666666, 0.16666666666666666, 0.16666666666666666, 0.16666666666666666, 0.16666666666666666, 0.16666666666666666;
    ( RURAL, TECNICO, MAGDALENA, OFICIAL ) 0.0, 0.5639701663798049, 0.008032128514056224, 0.009179575444635685, 0.020080321285140562, 0.3987378083763626;
    ( RURAL, TECNICO, META, NO_OFICIAL ) 0.0, 1.0, 0.0, 0.0, 0.0, 0.0;
    ( RURAL, TECNICO, META, OFICIAL ) 0.0, 0.526578073089701, 0.016611295681063124, 0.0, 0.0, 0.4568106312292359;
    ( RURAL, TECNICO, NARINO, NO_OFICIAL ) 0.16666666666666666, 0.16666666666666666, 0.16666666666666666, 0.16666666666666666, 0.16666666666666666, 0.16666666666666666;
    ( RURAL, TECNICO, NARINO, OFICIAL ) 0.0, 0.7960773002595904, 0.017882895875396595, 0.02307470435535045, 0.0, 0.16296509950966254;
    ( RURAL, TECNICO, NORTE_SANTANDER, NO_OFICIAL ) 0.16666666666666666, 0.16666666666666666, 0.16666666666666666, 0.16666666666666666, 0.16666666666666666, 0.16666666666666666;
    ( RURAL, TECNICO, NORTE_SANTANDER, OFICIAL ) 0.26496350364963506, 0.28175182481751826, 0.0, 0.0, 0.0, 0.45328467153284674;
    ( RURAL, TECNICO, PUTUMAYO, NO_OFICIAL ) 0.16666666666666666, 0.16666666666666666, 0.16666666666666666, 0.16666666666666666, 0.16666666666666666, 0.16666666666666666;
    ( RURAL, TECNICO, PUTUMAYO, OFICIAL ) 0.4, 0.0, 0.18823529411764706, 0.0, 0.0, 0.4117647058823529;
    ( RURAL, TECNICO, QUINDIO, NO_OFICIAL ) 1.0, 0.0, 0.0, 0.0, 0.0, 0.0;
    ( RURAL, TECNICO, QUINDIO, OFICIAL ) 0.0, 0.0, 0.0, 0.0, 0.0, 1.0;
    ( RURAL, TECNICO, RISARALDA, NO_OFICIAL ) 1.0, 0.0, 0.0, 0.0, 0.0, 0.0;
    ( RURAL, TECNICO, RISARALDA, OFICIAL ) 0.0, 0.4466338259441708, 0.0755336617405583, 0.13136288998357964, 0.052545155993431854, 0.2939244663382594;
    ( RURAL, TECNICO, SANTANDER, NO_OFICIAL ) 0.16666666666666666, 0.16666666666666666, 0.16666666666666666, 0.16666666666666666, 0.16666666666666666, 0.16666666666666666;
    ( RURAL, TECNICO, SANTANDER, OFICIAL ) 0.175561797752809, 0.49859550561797755, 0.0, 0.0, 0.0, 0.3258426966292135;
    ( RURAL, TECNICO, SAN_ANDRES, NO_OFICIAL ) 0.16666666666666666, 0.16666666666666666, 0.16666666666666666, 0.16666666666666666, 0.16666666666666666, 0.16666666666666666;
    ( RURAL, TECNICO, SAN_ANDRES, OFICIAL ) 0.16666666666666666, 0.16666666666666666, 0.16666666666666666, 0.16666666666666666, 0.16666666666666666, 0.16666666666666666;
    ( RURAL, TECNICO, SUCRE, NO_OFICIAL ) 0.16666666666666666, 0.16666666666666666, 0.16666666666666666, 0.16666666666666666, 0.16666666666666666, 0.16666666666666666;
    ( RURAL, TECNICO, SUCRE, OFICIAL ) 0.0, 0.9239766081871345, 0.0, 0.0, 0.0, 0.07602339181286549;
    ( RURAL, TECNICO, TOLIMA, NO_OFICIAL ) 0.16666666666666666, 0.16666666666666666, 0.16666666666666666, 0.16666666666666666, 0.16666666666666666, 0.16666666666666666;
    ( RURAL, TECNICO, TOLIMA, OFICIAL ) 0.014598540145985401, 0.46472019464720193, 0.0, 0.06934306569343066, 0.0, 0.451338199513382;
    ( RURAL, TECNICO, VALLE, NO_OFICIAL ) 0.2892768079800499, 0.7107231920199502, 0.0, 0.0, 0.0, 0.0;
    ( RURAL, TECNICO, VALLE, OFICIAL ) 0.051446321102698506, 0.689186565715395, 0.0401863715783343, 0.050475635798874006, 0.010095127159774802, 0.15860997864492332;
    ( RURAL, TECNICO, VAUPES, NO_OFICIAL ) 0.16666666666666666, 0.16666666666666666, 0.16666666666666666, 0.16666666666666666, 0.16666666666666666, 0.16666666666666666;
    ( RURAL, TECNICO, VAUPES, OFICIAL ) 0.0, 1.0, 0.0, 0.0, 0.0, 0.0;
    ( RURAL, TECNICO, VICHADA, NO_OFICIAL ) 0.16666666666666666, 0.16666666666666666, 0.16666666666666666, 0.16666666666666666, 0.16666666666666666, 0.16666666666666666;
    ( RURAL, TECNICO, VICHADA, OFICIAL ) 0.42592592592592593, 0.34074074074074073, 0.0, 0.0, 0.0, 0.23333333333333334;
    ( RURAL, TECNICO_ACADEMICO, AMAZONAS, NO_OFICIAL ) 0.16666666666666666, 0.16666666666666666, 0.16666666666666666, 0.16666666666666666, 0.16666666666666666, 0.16666666666666666;
    ( RURAL, TECNICO_ACADEMICO, AMAZONAS, OFICIAL ) 0.16666666666666666, 0.16666666666666666, 0.16666666666666666, 0.16666666666666666, 0.16666666666666666, 0.16666666666666666;
    ( RURAL, TECNICO_ACADEMICO, ANTIOQUIA, NO_OFICIAL ) 1.0, 0.0, 0.0, 0.0, 0.0, 0.0;
    ( RURAL, TECNICO_ACADEMICO, ANTIOQUIA, OFICIAL ) 0.31416331299493705, 0.34064650136310526, 0.02907957938465533, 0.057769700116837595, 0.057510061015188886, 0.20083084512527585;
    ( RURAL, TECNICO_ACADEMICO, ARAUCA, NO_OFICIAL ) 0.16666666666666666, 0.16666666666666666, 0.16666666666666666, 0.16666666666666666, 0.16666666666666666, 0.16666666666666666;
    ( RURAL, TECNICO_ACADEMICO, ARAUCA, OFICIAL ) 0.16666666666666666, 0.16666666666666666, 0.16666666666666666, 0.16666666666666666, 0.16666666666666666, 0.16666666666666666;
    ( RURAL, TECNICO_ACADEMICO, ATLANTICO, NO_OFICIAL ) 0.16666666666666666, 0.16666666666666666, 0.16666666666666666, 0.16666666666666666, 0.16666666666666666, 0.16666666666666666;
    ( RURAL, TECNICO_ACADEMICO, ATLANTICO, OFICIAL ) 0.0, 0.5613207547169812, 0.0, 0.0, 0.0, 0.4386792452830189;
    ( RURAL, TECNICO_ACADEMICO, BOGOTA, NO_OFICIAL ) 0.16666666666666666, 0.16666666666666666, 0.16666666666666666, 0.16666666666666666, 0.16666666666666666, 0.16666666666666666;
    ( RURAL, TECNICO_ACADEMICO, BOGOTA, OFICIAL ) 0.0, 0.4774774774774775, 0.0, 0.0, 0.0, 0.5225225225225225;
    ( RURAL, TECNICO_ACADEMICO, BOLIVAR, NO_OFICIAL ) 1.0, 0.0, 0.0, 0.0, 0.0, 0.0;
    ( RURAL, TECNICO_ACADEMICO, BOLIVAR, OFICIAL ) 0.0, 0.5964797913950456, 0.09647979139504563, 0.0, 0.22848761408083443, 0.07855280312907431;
    ( RURAL, TECNICO_ACADEMICO, BOYACA, NO_OFICIAL ) 0.16666666666666666, 0.16666666666666666, 0.16666666666666666, 0.16666666666666666, 0.16666666666666666, 0.16666666666666666;
    ( RURAL, TECNICO_ACADEMICO, BOYACA, OFICIAL ) 0.367536231884058, 0.37971014492753624, 0.0, 0.007536231884057971, 0.0, 0.24521739130434783;
    ( RURAL, TECNICO_ACADEMICO, CALDAS, NO_OFICIAL ) 1.0, 0.0, 0.0, 0.0, 0.0, 0.0;
    ( RURAL, TECNICO_ACADEMICO, CALDAS, OFICIAL ) 0.16666666666666666, 0.16666666666666666, 0.16666666666666666, 0.16666666666666666, 0.16666666666666666, 0.16666666666666666;
    ( RURAL, TECNICO_ACADEMICO, CAQUETA, NO_OFICIAL ) 0.16666666666666666, 0.16666666666666666, 0.16666666666666666, 0.16666666666666666, 0.16666666666666666, 0.16666666666666666;
    ( RURAL, TECNICO_ACADEMICO, CAQUETA, OFICIAL ) 0.0, 0.29945054945054944, 0.0, 0.12774725274725274, 0.0, 0.5728021978021978;
    ( RURAL, TECNICO_ACADEMICO, CASANARE, NO_OFICIAL ) 0.16666666666666666, 0.16666666666666666, 0.16666666666666666, 0.16666666666666666, 0.16666666666666666, 0.16666666666666666;
    ( RURAL, TECNICO_ACADEMICO, CASANARE, OFICIAL ) 0.0, 0.5723336853220697, 0.0, 0.1689545934530095, 0.0, 0.2587117212249208;
    ( RURAL, TECNICO_ACADEMICO, CAUCA, NO_OFICIAL ) 0.9473684210526315, 0.05263157894736842, 0.0, 0.0, 0.0, 0.0;
    ( RURAL, TECNICO_ACADEMICO, CAUCA, OFICIAL ) 0.18984771573604062, 0.7390862944162436, 0.0, 0.0, 0.0, 0.07106598984771574;
    ( RURAL, TECNICO_ACADEMICO, CESAR, NO_OFICIAL ) 0.16666666666666666, 0.16666666666666666, 0.16666666666666666, 0.16666666666666666, 0.16666666666666666, 0.16666666666666666;
    ( RURAL, TECNICO_ACADEMICO, CESAR, OFICIAL ) 0.029296875, 0.6048177083333334, 0.011393229166666666, 0.014973958333333334, 0.0361328125, 0.3033854166666667;
    ( RURAL, TECNICO_ACADEMICO, CHOCO, NO_OFICIAL ) 0.16666666666666666, 0.16666666666666666, 0.16666666666666666, 0.16666666666666666, 0.16666666666666666, 0.16666666666666666;
    ( RURAL, TECNICO_ACADEMICO, CHOCO, OFICIAL ) 0.0, 0.6120218579234973, 0.0, 0.008500303582270795, 0.0, 0.37947783849423194;
    ( RURAL, TECNICO_ACADEMICO, CORDOBA, NO_OFICIAL ) 0.16666666666666666, 0.16666666666666666, 0.16666666666666666, 0.16666666666666666, 0.16666666666666666, 0.16666666666666666;
    ( RURAL, TECNICO_ACADEMICO, CORDOBA, OFICIAL ) 0.0, 0.8731060606060606, 0.0, 0.0, 0.0, 0.1268939393939394;
    ( RURAL, TECNICO_ACADEMICO, CUNDINAMARCA, NO_OFICIAL ) 0.16666666666666666, 0.16666666666666666, 0.16666666666666666, 0.16666666666666666, 0.16666666666666666, 0.16666666666666666;
    ( RURAL, TECNICO_ACADEMICO, CUNDINAMARCA, OFICIAL ) 0.051556698086261066, 0.2503570408454727, 0.05541273921736647, 0.12724935732647816, 0.0005712653527563553, 0.5148528991716652;
    ( RURAL, TECNICO_ACADEMICO, GUAINIA, NO_OFICIAL ) 0.16666666666666666, 0.16666666666666666, 0.16666666666666666, 0.16666666666666666, 0.16666666666666666, 0.16666666666666666;
    ( RURAL, TECNICO_ACADEMICO, GUAINIA, OFICIAL ) 0.0, 0.4383561643835616, 0.0, 0.0, 0.0, 0.5616438356164384;
    ( RURAL, TECNICO_ACADEMICO, GUAVIARE, NO_OFICIAL ) 0.16666666666666666, 0.16666666666666666, 0.16666666666666666, 0.16666666666666666, 0.16666666666666666, 0.16666666666666666;
    ( RURAL, TECNICO_ACADEMICO, GUAVIARE, OFICIAL ) 0.0, 0.4057971014492754, 0.0, 0.14492753623188406, 0.0, 0.4492753623188406;
    ( RURAL, TECNICO_ACADEMICO, HUILA, NO_OFICIAL ) 0.16666666666666666, 0.16666666666666666, 0.16666666666666666, 0.16666666666666666, 0.16666666666666666, 0.16666666666666666;
    ( RURAL, TECNICO_ACADEMICO, HUILA, OFICIAL ) 0.4040920716112532, 0.0, 0.06265984654731457, 0.024296675191815855, 0.0, 0.5089514066496164;
    ( RURAL, TECNICO_ACADEMICO, LA_GUAJIRA, NO_OFICIAL ) 0.16666666666666666, 0.16666666666666666, 0.16666666666666666, 0.16666666666666666, 0.16666666666666666, 0.16666666666666666;
    ( RURAL, TECNICO_ACADEMICO, LA_GUAJIRA, OFICIAL ) 0.16666666666666666, 0.16666666666666666, 0.16666666666666666, 0.16666666666666666, 0.16666666666666666, 0.16666666666666666;
    ( RURAL, TECNICO_ACADEMICO, MAGDALENA, NO_OFICIAL ) 0.16666666666666666, 0.16666666666666666, 0.16666666666666666, 0.16666666666666666, 0.16666666666666666, 0.16666666666666666;
    ( RURAL, TECNICO_ACADEMICO, MAGDALENA, OFICIAL ) 0.012446717817561808, 0.5517476555839728, 0.11679454390451834, 0.0, 0.1411764705882353, 0.17783461210571186;
    ( RURAL, TECNICO_ACADEMICO, META, NO_OFICIAL ) 0.0, 0.6951219512195121, 0.0, 0.0, 0.3048780487804878, 0.0;
    ( RURAL, TECNICO_ACADEMICO, META, OFICIAL ) 0.15544412607449856, 0.6454154727793696, 0.02041547277936963, 0.0, 0.0, 0.17872492836676218;
    ( RURAL, TECNICO_ACADEMICO, NARINO, NO_OFICIAL ) 0.16666666666666666, 0.16666666666666666, 0.16666666666666666, 0.16666666666666666, 0.16666666666666666, 0.16666666666666666;
    ( RURAL, TECNICO_ACADEMICO, NARINO, OFICIAL ) 0.0, 0.8789237668161435, 0.013452914798206279, 0.0, 0.021780909673286355, 0.08584240871236387;
    ( RURAL, TECNICO_ACADEMICO, NORTE_SANTANDER, NO_OFICIAL ) 0.16666666666666666, 0.16666666666666666, 0.16666666666666666, 0.16666666666666666, 0.16666666666666666, 0.16666666666666666;
    ( RURAL, TECNICO_ACADEMICO, NORTE_SANTANDER, OFICIAL ) 0.03625954198473282, 0.4910941475826972, 0.0, 0.0, 0.0, 0.47264631043257;
    ( RURAL, TECNICO_ACADEMICO, PUTUMAYO, NO_OFICIAL ) 0.16666666666666666, 0.16666666666666666, 0.16666666666666666, 0.16666666666666666, 0.16666666666666666, 0.16666666666666666;
    ( RURAL, TECNICO_ACADEMICO, PUTUMAYO, OFICIAL ) 0.0617399438727783, 0.5977549111318989, 0.0, 0.06641721234798878, 0.0, 0.27408793264733394;
    ( RURAL, TECNICO_ACADEMICO, QUINDIO, NO_OFICIAL ) 0.16666666666666666, 0.16666666666666666, 0.16666666666666666, 0.16666666666666666, 0.16666666666666666, 0.16666666666666666;
    ( RURAL, TECNICO_ACADEMICO, QUINDIO, OFICIAL ) 0.0, 0.43304843304843305, 0.0, 0.1842355175688509, 0.0, 0.38271604938271603;
    ( RURAL, TECNICO_ACADEMICO, RISARALDA, NO_OFICIAL ) 0.16666666666666666, 0.16666666666666666, 0.16666666666666666, 0.16666666666666666, 0.16666666666666666, 0.16666666666666666;
    ( RURAL, TECNICO_ACADEMICO, RISARALDA, OFICIAL ) 0.0, 0.40892193308550184, 0.07001239157372986, 0.14745972738537794, 0.11152416356877323, 0.2620817843866171;
    ( RURAL, TECNICO_ACADEMICO, SANTANDER, NO_OFICIAL ) 0.16666666666666666, 0.16666666666666666, 0.16666666666666666, 0.16666666666666666, 0.16666666666666666, 0.16666666666666666;
    ( RURAL, TECNICO_ACADEMICO, SANTANDER, OFICIAL ) 0.16013628620102216, 0.31686541737649065, 0.019165247018739354, 0.049829642248722314, 0.06856899488926746, 0.3854344122657581;
    ( RURAL, TECNICO_ACADEMICO, SAN_ANDRES, NO_OFICIAL ) 0.16666666666666666, 0.16666666666666666, 0.16666666666666666, 0.16666666666666666, 0.16666666666666666, 0.16666666666666666;
    ( RURAL, TECNICO_ACADEMICO, SAN_ANDRES, OFICIAL ) 0.0, 0.32919254658385094, 0.0, 0.0, 0.30434782608695654, 0.36645962732919257;
    ( RURAL, TECNICO_ACADEMICO, SUCRE, NO_OFICIAL ) 0.16666666666666666, 0.16666666666666666, 0.16666666666666666, 0.16666666666666666, 0.16666666666666666, 0.16666666666666666;
    ( RURAL, TECNICO_ACADEMICO, SUCRE, OFICIAL ) 0.0, 0.5377777777777778, 0.0, 0.0, 0.0, 0.4622222222222222;
    ( RURAL, TECNICO_ACADEMICO, TOLIMA, NO_OFICIAL ) 0.16666666666666666, 0.16666666666666666, 0.16666666666666666, 0.16666666666666666, 0.16666666666666666, 0.16666666666666666;
    ( RURAL, TECNICO_ACADEMICO, TOLIMA, OFICIAL ) 0.0, 0.33274647887323944, 0.01584507042253521, 0.02523474178403756, 0.0, 0.6261737089201878;
    ( RURAL, TECNICO_ACADEMICO, VALLE, NO_OFICIAL ) 0.8282828282828283, 0.0, 0.0, 0.1717171717171717, 0.0, 0.0;
    ( RURAL, TECNICO_ACADEMICO, VALLE, OFICIAL ) 0.023671281822242072, 0.6181330951317553, 0.03305046895935686, 0.018088432335864227, 0.005806163465832961, 0.3012505582849486;
    ( RURAL, TECNICO_ACADEMICO, VAUPES, NO_OFICIAL ) 0.16666666666666666, 0.16666666666666666, 0.16666666666666666, 0.16666666666666666, 0.16666666666666666, 0.16666666666666666;
    ( RURAL, TECNICO_ACADEMICO, VAUPES, OFICIAL ) 0.16666666666666666, 0.16666666666666666, 0.16666666666666666, 0.16666666666666666, 0.16666666666666666, 0.16666666666666666;
    ( RURAL, TECNICO_ACADEMICO, VICHADA, NO_OFICIAL ) 0.16666666666666666, 0.16666666666666666, 0.16666666666666666, 0.16666666666666666, 0.16666666666666666, 0.16666666666666666;
    ( RURAL, TECNICO_ACADEMICO, VICHADA, OFICIAL ) 0.16666666666666666, 0.16666666666666666, 0.16666666666666666, 0.16666666666666666, 0.16666666666666666, 0.16666666666666666;
    ( URBANO, ACADEMICO, AMAZONAS, NO_OFICIAL ) 0.0, 1.0, 0.0, 0.0, 0.0, 0.0;
    ( URBANO, ACADEMICO, AMAZONAS, OFICIAL ) 0.0, 0.0, 0.0, 0.0, 0.0, 1.0;
    ( URBANO, ACADEMICO, ANTIOQUIA, NO_OFICIAL ) 0.4200128907508862, 0.34508540122462134, 0.03567515307766678, 0.15787947147921366, 0.03912342893973574, 0.0022236545278762486;
    ( URBANO, ACADEMICO, ANTIOQUIA, OFICIAL ) 0.10157937238257995, 0.47749253507108114, 0.0887340607335349, 0.09143833687017597, 0.1301057296850645, 0.11064996525756353;
    ( URBANO, ACADEMICO, ARAUCA, NO_OFICIAL ) 0.5613382899628253, 0.27137546468401486, 0.0, 0.16728624535315986, 0.0, 0.0;
    ( URBANO, ACADEMICO, ARAUCA, OFICIAL ) 0.0, 0.8238636363636364, 0.05578512396694215, 0.07076446280991736, 0.012396694214876033, 0.0371900826446281;
    ( URBANO, ACADEMICO, ATLANTICO, NO_OFICIAL ) 0.4084001570122806, 0.256602927157517, 0.12925475242527898, 0.01884147367240509, 0.12673134077272472, 0.06016934895979364;
    ( URBANO, ACADEMICO, ATLANTICO, OFICIAL ) 0.007449675067364083, 0.4124266920272626, 0.13250911396417817, 0.0, 0.09617213504517357, 0.35144238389602156;
    ( URBANO, ACADEMICO, BOGOTA, NO_OFICIAL ) 0.7917914472249952, 0.0879028834348789, 0.051335008548185374, 0.028088533957522976, 0.008158066847957042, 0.032724059986460594;
    ( URBANO, ACADEMICO, BOGOTA, OFICIAL ) 0.004832299786479777, 0.4209413279118948, 0.07378196418172717, 0.01404738310023191, 0.28526914786020047, 0.2011278771594659;
    ( URBANO, ACADEMICO, BOLIVAR, NO_OFICIAL ) 0.28685186860917566, 0.5988598316894399, 0.0005429372907429192, 0.015111754592344585, 0.08469821735589539, 0.013935390462401593;
